9996 16
the 0.30328563 -0.008543687 -0.0132662095 -0.020185884 -0.0061879656 0.031325072 0.051828444 0.00011176296 -0.042420883 0.04621877 -0.050751165 0.005317528 -0.049846385 -0.039583426 0.024804728 -0.015044244
and 0.48602596 0.02555724 -0.0067522353 -0.025828252 -0.00996581 0.042049732 0.029084645 -0.090800166 -0.048384946 0.055925958 -0.014726635 0.008767636 -0.0008452346 -0.013930282 0.045007832 -0.05806201
a 0.45944032 0.0114175305 0.03285578 0.01327184 -0.04421777 0.070399806 0.028289309 -0.020927792 -0.03260474 0.0166276 -0.06937927 0.009747168 -0.011790201 -0.039186873 0.17314392 -0.10561486
of 0.41291022 0.024015142 0.03523371 0.019651104 0.069052674 0.07789751 -0.019530907 -0.006473401 0.061634906 0.05382502 0.05437598 0.037894286 -0.13897803 -0.05480553 0.03954545 -0.029863132
to 0.4271898 -0.037696537 0.030739116 0.048452675 0.015688872 -0.036525063 -0.03069677 0.04397189 0.03535544 -0.019624554 0.0049369633 0.00627716 -0.14611703 -0.10708289 0.11503761 -0.0006925191
is 0.29163668 0.04847759 0.05047902 -0.033558987 0.047296017 0.06251698 0.02826794 -0.026296057 -0.06260555 0.04600937 -0.013060393 0.040799312 -0.07518714 0.008942254 0.056597684 -0.01653162
br 0.37004492 -0.06958375 0.1168065 0.0511532 -0.035418633 -0.007262573 -0.0011703755 0.037617974 0.06303095 -0.009449967 0.07380137 0.017063154 -0.10684571 -0.055437796 0.14857084 -0.07100216
in 0.3958218 0.045808583 0.050719045 0.01927813 1.4499128e-05 0.023031294 0.03785549 -0.021439293 0.041755065 0.07459345 -0.047120508 0.05094663 -0.051860712 -0.03744947 0.11700574 -0.03853598
it 0.40598223 -0.012906442 0.04163519 0.04091946 -0.032780368 0.028787557 -0.0098055415 0.018722946 0.067359194 0.045068137 0.046642013 0.057111673 -0.09079489 -0.043831322 0.13016811 -0.08250681
i 0.3601398 -0.061336327 0.09086542 0.110003635 -0.06448946 -0.1041126 -0.114978924 0.08974984 0.06867074 -0.04229655 0.07818582 -0.07470772 -0.0549801 -0.08165259 0.07411799 -0.03156974
this 0.425031 -0.08858901 0.084745616 0.10986723 0.04067839 -0.037033327 -0.06146381 0.03131196 0.07799821 0.025750207 0.09159281 0.002603227 -0.244217 -0.14353685 0.09177999 -0.057908714
that 0.24324784 -0.03171473 0.05674443 0.04326736 0.013922356 -0.054412995 -0.016312348 0.004407984 0.08214341 -0.020347593 0.028496662 -0.023050116 -0.06443786 -0.064936 0.07348077 -0.0712952
was 0.34006214 -0.027412657 0.06806408 0.01184132 0.016847158 -0.059625503 -0.0006938471 -0.027552456 0.04915519 -0.014403135 0.08053631 -0.06325008 -0.07144548 -0.034411516 -0.0014420543 -0.028131586
as 0.27231383 -0.034701336 0.009604402 0.06939709 -0.022491567 0.03177904 -0.012647739 0.03561939 0.044794425 -0.02084618 0.056948885 -0.019228764 -0.071138136 -0.08080342 0.025434744 -0.0051144613
for 0.35993254 0.013078661 0.054402057 0.039727088 -0.02586196 -0.00487824 -0.028817626 0.0014006638 0.06389603 0.046875693 0.011835861 -0.0067073302 -0.09270002 -0.034083344 0.11726052 -0.024114065
with 0.4047952 0.008744318 0.10300052 0.09994065 -0.06144345 -0.06793215 -0.0033769426 0.01341238 0.03664547 0.018427476 0.07281552 0.004227959 -0.11377203 -0.066937186 0.09683494 -0.031651605
movie 0.34638155 -0.048828088 0.084551945 0.057359345 0.0066991705 -0.06613899 -0.044620052 0.013088901 0.10150077 0.019099602 0.016015694 -0.05318152 -0.09115366 -0.059999585 0.050915226 -0.004212864
but 0.15416433 0.07706436 -0.002819122 -0.026892297 0.026584145 0.028380793 0.07794244 -0.07218703 0.0073040724 0.08369231 -0.012589808 0.07303751 0.013803854 0.0015288626 0.09845849 -0.039760526
film 0.24418513 0.032868106 0.019349197 0.0013930767 0.019754168 -0.02691162 0.038774032 0.033236854 0.05674616 -0.0029920826 0.05072973 0.009709477 -0.03709209 -0.014064951 0.09186974 0.004860484
on 0.22722086 -0.026367143 0.06574453 0.050260965 0.024907649 0.029635845 -0.032575246 -0.03474816 0.04742586 0.028291926 0.0110916365 -0.014211256 -0.087613106 -0.02598133 0.053407103 -0.024445834
not 0.39477912 -0.01007941 0.1275524 0.09186357 0.03566158 -0.06955426 0.0014050624 0.011900661 0.09922668 0.018701958 0.03997778 -0.08192678 -0.11819502 -0.08942533 0.011704419 0.007026732
you 0.20669301 0.028105792 0.019266827 0.02482688 -0.046954952 0.07086191 0.037405726 -0.024279006 -0.0053534433 0.06646261 -0.03118372 0.059557978 -0.033209093 0.05198395 0.1014316 -0.036817987
are 0.14997403 0.02295534 -0.0065951585 0.008116876 -0.06283001 -0.0013939155 -0.039027274 0.015711863 0.06507685 0.0284404 0.062132247 -0.05564677 0.01586063 -0.071634404 0.047723338 -0.027483799
his 0.25914234 0.06870858 -0.019697092 -0.087952875 0.084944636 0.01590229 0.092991896 -0.033969563 -0.0420282 0.08377109 -0.043915078 0.006798283 -0.061239418 0.03853791 0.06578975 -0.07625768
have 0.34863582 -0.07075576 0.0613413 0.05751429 -0.01166331 -0.08284865 -0.04602989 0.06514855 0.040728692 -0.004113108 0.015373043 -0.04530553 -0.050021846 -0.056973007 0.15600108 0.021944286
he 0.14975196 -0.0043187584 -0.014412339 0.024525834 -0.01939627 -0.046895504 -0.046851017 -0.032892153 -0.008737368 0.02880487 0.03581877 -0.015535338 0.03311478 -0.015790556 0.05156273 0.008933104
be 0.2887417 -0.044245526 0.046185803 0.04767912 -0.02854261 -0.04835264 -0.003527468 0.054390565 0.024443671 -0.0148867 0.031635985 -0.0090721585 -0.073353186 -0.06513263 0.1168366 -0.038317334
one 0.3083076 0.043522093 0.094800524 0.005890755 0.05700705 0.00086616474 -0.020700414 -0.011360284 0.057489738 0.066418774 0.014166699 -0.020134991 -0.14750427 -0.11116328 0.055105623 0.0056204153
all 0.32202253 -0.013405077 0.029364185 0.02722803 -0.017926374 0.020228695 0.018384721 -0.080842875 -0.0008762891 0.06609263 -0.0039050488 0.05793059 -0.09269247 -0.028800037 0.12343342 -0.11787869
at 0.0686555 9.474732e-05 0.009668812 -0.006003896 -0.042557493 -0.026273824 0.008515618 -0.01767839 0.029055752 0.026773036 -0.03509013 0.012563216 -0.11087646 -0.022803172 0.059087534 0.023229739
by 0.27016294 -0.0026987512 0.039327692 0.08020382 -0.03755032 0.011506646 -0.0066195074 0.046823584 0.08003265 -0.028950652 -0.0037926892 0.01674274 -0.009068365 0.015818862 0.08584718 0.036195684
an 0.26558387 0.04068453 0.09359838 0.02041931 -0.02368241 -0.00037623153 0.0069254665 -0.021918064 0.037092768 0.037683625 0.0015965635 -0.014176759 -0.04771878 -0.043892805 0.055575747 -0.054547135
they 0.20162427 0.0075752884 0.010357074 0.052197695 -0.049518254 -0.059227407 0.0033182076 0.0207838 0.063844904 -0.020246431 0.018159375 -0.0931741 0.038650412 -0.04015145 0.06002144 0.052547272
who 0.16679089 0.021158002 0.013219795 0.035107095 -0.015795501 -0.00478353 0.005780828 0.013378649 0.0027332106 0.052935466 0.009711855 1.3742087e-05 -0.03519282 0.047964823 0.045707386 -0.01878625
so 0.24729203 -0.039951455 0.14442094 0.14390372 -0.041929808 -0.077768624 -0.11991821 0.077984236 0.11127445 -0.013091944 0.03830094 -0.052039083 -0.15174958 -0.12900335 0.13383842 0.004100784
from 0.2406683 -0.05927108 0.11544787 0.10027631 -0.01401609 -0.08506774 -0.00625264 0.05987199 0.046564154 -0.03343751 0.10640029 -0.080665246 -0.13459222 -0.11229905 0.06971049 0.022617526
like 0.1521292 -0.002638257 -0.045138273 -0.004042646 -0.041393835 0.005169603 0.012440587 -0.005987094 -0.003437351 0.07364187 -0.009468697 0.040241525 -0.018065164 0.01894195 0.06244459 -0.059533123
her 0.040425487 0.004068395 0.060773607 -0.0042706933 0.022572637 -0.05565916 -0.044101406 0.034796298 -0.0056434614 -0.033872526 0.027549962 0.00032693893 -0.0017066377 0.015809048 0.05113182 0.026233535
or 0.16633265 0.007140448 0.07674297 0.043322776 -0.043135148 0.026296368 0.0010327803 0.055768523 0.024920933 -0.03206991 0.013403921 -0.059195414 -0.07867897 -0.034881562 0.042164758 -0.022580322
just 0.15628223 -0.0069942386 0.06184847 0.034391202 -0.048120942 -0.03496778 -0.049760398 0.0058960603 0.03949327 7.3809715e-05 0.018923605 -0.091870256 -0.11583032 -0.051852904 0.04348893 -0.023551814
about 0.2518181 0.027262863 0.015808826 0.006281605 -0.00073571433 0.013608563 -0.01234913 -0.0021912956 0.011629042 0.063434795 0.051266477 -0.020779682 -0.08814237 -0.08306844 0.047473636 -0.019030744
it's 0.34271902 0.037486658 0.07119692 0.12220484 0.0046794456 -0.011024116 0.0044111386 0.009177157 0.07426174 -0.01758257 0.08935865 0.007827413 -0.2583859 -0.1334307 0.19959968 -0.057089526
out 0.32635283 -0.12901428 0.24207994 0.18924823 0.0009910432 -0.13405089 -0.14723031 0.11609755 0.18252271 0.03272253 0.19954878 -0.104269646 -0.30406344 -0.22629294 0.021112842 -0.027564082
has 0.30184615 -0.06711363 0.088543214 0.024147954 -0.040163565 -0.046836805 -0.054946363 0.050300542 0.10866679 -0.055148292 0.10074965 -0.047637213 -0.11198723 -0.12421093 0.12116242 0.037601065
if 0.34760582 0.009101931 -0.08270008 -0.04764457 -0.019769138 0.07209176 0.06061836 -0.022161944 -0.026501924 0.08578739 -0.060493384 0.100203685 -0.066435285 0.020783175 0.11731621 0.00615165
some 0.255816 -0.04392353 0.0970497 0.056580275 0.0024408703 -0.068962105 -0.02879883 0.031123783 0.037129473 -0.04606576 0.06657287 -0.0228368 -0.18752557 -0.07762652 -0.0433693 0.0094545055
there 0.19108823 -0.07630189 0.057313707 0.023687541 -0.026852168 -0.015924431 -0.048979808 0.05446494 0.020186048 -0.030720506 -0.007844151 -0.04365275 -0.14839393 -0.07439448 0.029553937 -0.014526207
what 0.14751837 0.0060374476 0.019689787 -0.033954542 -0.024620175 0.078503884 0.02045252 -0.009840502 -0.04851868 -0.01927915 0.025270836 0.030154044 -0.05654089 0.056417994 0.06945959 -0.0006966847
good 0.20538664 0.02174354 0.07674921 0.05804152 0.027554164 -0.009863016 0.014336897 -0.062861994 0.032125704 0.016771708 0.07954659 -0.011828907 -0.10552522 -0.036230143 0.060722224 -0.033083994
more 0.2061191 -0.053935755 0.11043237 0.024145458 -0.0062618325 -0.048290096 0.009118502 -0.009393551 0.059832655 0.015221581 0.021677446 -0.037930675 -0.09891234 -0.0953721 0.11727818 -0.0126394
when 0.29951137 0.010547063 -0.017730972 0.03584623 0.009628645 0.033072855 0.004890102 0.007515754 -0.050205942 0.075541176 -0.014096141 0.032629676 -0.06827309 0.010354707 0.0793214 -0.08129561
very 0.22777727 -0.018796088 0.060151666 0.08999768 0.0069019543 -0.0033641327 0.01875857 -0.04416528 0.097680636 -0.009460188 0.032442648 0.03173292 -0.15935129 -0.04534189 -0.0044156346 -0.020761304
up 0.2607128 -0.019184733 0.07650103 0.034568608 -0.042002015 -0.04600745 0.01928338 -0.019407189 0.044939186 0.037149318 -0.015380606 -0.03682349 0.009811528 -0.028386956 0.05108436 -0.04120717
no 0.28372154 -0.030234136 0.14774758 0.12009398 -0.0605937 -0.09028798 -0.090079084 0.12636152 0.088444576 -0.08926262 0.079428636 -0.051790364 -0.20564489 -0.095608175 0.14509365 0.035509348
time 0.22852401 -0.018910455 0.08309013 0.0409556 -0.00824427 -0.08830535 -0.061977062 0.051452894 0.053447556 -0.02434176 0.118547335 -0.06372162 -0.09056565 -0.0558035 0.027504595 0.016284209
she 0.12430952 0.030050928 -0.095587894 -0.047933564 0.020584151 0.11562711 0.08108355 -0.059379663 -0.03285486 0.02419137 -0.0038436607 0.05823631 0.00914262 0.043974772 0.06156074 -0.010911563
even 0.08982835 -0.03658186 -0.020416263 0.06342953 -0.03250683 0.014288484 0.0472533 0.03334838 0.020356905 0.0286123 -1.8171115e-05 -0.02776242 -0.12642083 -0.049487855 0.026692554 -0.095605865
my 0.37096533 0.09651462 -0.051375724 -0.055500206 0.027341781 0.09577035 0.053343188 -0.052660484 0.022355162 0.0835774 -0.047135103 0.013607358 -0.015922941 0.025432749 0.12045091 -0.09273214
would 0.18860957 0.013359156 -0.074287474 -0.0067534526 -0.012501256 0.096725985 0.04702915 -0.004598078 0.023861533 0.04040297 -0.011765087 0.0022333483 0.032153632 0.011070611 0.10357679 0.0050572143
which 0.27573022 -0.013608117 0.07389152 0.05032481 0.02868299 -0.028872129 0.044105884 0.019887676 9.907754e-05 0.030996008 -0.016507959 0.0031327868 -0.20430434 -0.07300607 0.25217995 -0.05297791
only 0.28625196 0.019680345 0.078980416 0.08732885 -0.021756053 -0.014001681 -0.028558174 0.059771214 0.08602567 -0.052454814 0.006196219 -0.029248921 -0.07384782 -0.027308969 0.12509343 -0.010071763
story 0.06731763 -0.018939696 -0.00028817824 -0.021504415 0.0005642033 0.020141117 0.0031254874 -0.02570243 -0.014166723 -0.029657781 0.022010487 -0.023793628 -0.0078060306 -0.0026472462 0.049118575 0.023829514
really 0.2775783 -0.033156443 0.09738934 0.04113697 -0.0069964086 -0.07849084 -0.06272173 0.0144946575 0.10053901 0.004068154 0.0633859 -0.051557887 -0.20704451 -0.12919861 0.0468253 0.025505088
see 0.26083162 0.01992795 0.08150621 0.039378036 -0.012929507 -0.038652856 0.019481642 0.021507574 0.015919475 0.00975691 -0.014072721 0.008068429 -0.05895941 -0.045812763 0.07769072 -0.044421688
their 0.039445717 0.0798908 -0.014336961 0.0032857487 -0.0022220416 0.08494388 0.08029228 -0.057570003 -0.043637607 0.042177547 -0.026474707 0.01467801 -0.0001993146 -0.011092705 0.015733393 -0.08301411
had 0.15074752 -0.01800066 0.057292383 0.006156984 0.007165876 -0.024971936 0.036147438 -0.0022288372 -0.004062981 0.057678185 0.012556897 0.026099836 0.043574337 -0.054289263 0.085762896 -0.01205601
can 0.33039623 -0.02415583 0.037137628 0.0694769 -0.05292676 -0.004857714 0.010580499 0.03216666 0.098151624 0.027943185 0.035694283 0.015644554 0.009177655 -0.065512426 0.18835145 -0.05768959
were 0.23842557 0.010397602 0.01805436 0.020126032 -0.054495722 -0.028568786 -0.006490859 0.03117463 0.01699628 0.015258219 0.040865034 -0.02665432 0.013448453 -0.043880895 -0.005817556 -0.024583222
me 0.24893013 -0.017648643 0.1428933 0.03686128 0.03492723 -0.043009635 -0.039792974 0.0022065116 0.09082844 0.037566606 0.04734403 -0.01768489 -0.123688094 -0.047612958 0.022737252 -0.07528269
well 0.18210427 0.15336475 -0.074450724 -0.063964136 0.007661231 0.098987065 0.09488672 -0.12458277 -0.12531412 0.10097032 -0.07889309 0.1539595 0.08797112 0.08104288 0.10922236 -0.16433507
than 0.25501323 0.04322691 0.05053316 0.03576249 -0.077045396 -0.037193876 -0.008795185 -0.036978163 0.050593868 0.03589428 -0.01793954 0.031473275 -0.16164975 -0.03685996 0.11375037 -0.0669983
we 0.105269216 2.7562259e-05 -0.017723482 -0.07342744 0.04400438 0.092179365 0.030890105 -0.07696993 -0.08059235 0.055159867 -0.0073543456 -0.0011745915 -0.0077967704 0.0010184427 0.08904053 0.011962692
much 0.27206492 -0.02017826 0.088320754 0.020890666 -0.029733047 -0.018410744 -0.0140749635 0.030881202 0.067184 0.050623693 -0.004675765 0.0074606105 0.0061306576 -0.022998057 0.14342298 -0.081251666
been 0.25024527 -0.001840285 0.041601922 -0.036006663 0.029177265 0.05204356 0.012645845 -0.07357064 0.050486904 0.058079913 -0.05232729 0.060798824 -0.04460509 0.023349408 0.09701455 -0.04424037
bad 0.13838339 -0.18454744 0.19640516 0.22350985 -0.08778831 -0.15867947 -0.13007113 0.16824117 0.16598767 -0.105235554 0.19083712 -0.1513167 -0.14395499 -0.1690995 -0.0058119283 0.1120509
get 0.2599097 -0.040748447 -0.0008646152 0.05757069 -0.030508703 -0.03351578 -0.04263594 0.08529028 0.049716663 0.04197528 -0.017243508 0.0050395047 -0.007018728 -0.005347089 0.099407956 0.013078956
will 0.37525055 0.05339739 0.0106847575 -0.030447599 0.018306904 0.010480434 0.074664526 -0.05720839 0.06605743 0.039745633 -0.04751048 0.03271972 -0.021440197 -0.01490346 0.18699442 -0.061832707
do 0.26719952 0.02336139 0.0049221558 -0.014723317 -0.022099912 -0.014881265 -0.0039143255 -0.005363405 0.00041719584 0.0043193726 -0.044161264 0.05958799 -0.07232787 -0.05290117 0.19101164 -0.08791029
also 0.07822583 0.0111294305 -0.053214815 -0.032283712 0.012408108 0.066901766 0.07736348 -0.02197494 -0.06387224 0.033100262 -0.070432514 0.031437844 0.04278609 0.09577405 0.029344462 -0.042464975
into 0.09999332 -0.081252225 0.037796672 0.08465763 0.0033348233 -0.04738806 -0.006785107 0.068038024 0.09039325 -0.025720213 0.055480946 -0.080163725 -0.056457255 -0.045137748 -0.043232583 0.055375226
people 0.17688146 -0.009982083 0.048770737 0.034772772 0.003393072 -0.028662939 -0.0058248993 0.039777827 0.022410408 0.028833926 0.034206774 0.017785294 0.041152 -0.05674722 0.018818732 0.06547754
other 0.18474884 0.024049804 0.004203685 -0.081930384 0.02605248 0.108554795 0.08536359 -0.08128582 -0.087861635 0.10099481 -0.105502576 0.03077795 -0.073998585 0.07052171 0.061170224 -0.10387092
first 0.19371463 -0.004279937 0.00818083 0.027312713 -0.019975124 0.04702071 0.06978357 -0.02901832 0.012196081 0.0062731104 -0.017526709 0.061789736 -0.018462507 0.04270594 0.106588475 -0.024521643
great 0.15740767 0.056819316 0.03610099 0.041634355 0.12749599 -0.0013140572 0.051018 -0.035428226 -0.014710236 0.08272007 -0.033497825 0.026217833 -0.24689004 -0.017772049 -0.064660765 0.0005551059
because 0.13086359 -0.05229142 0.04766898 0.026564054 -0.03086539 -0.02793697 -0.06709539 0.020848889 0.06579213 -0.0071142484 0.053567845 -0.041286036 -0.26757827 -0.037287496 0.14130875 -0.034773767
how 0.2617854 -0.0348466 0.06066748 0.10831413 -0.03995484 0.0073798196 -0.013108612 0.052184813 0.12680896 -0.040659316 0.044485483 -0.055625647 -0.1531887 -0.07049972 0.107940584 -0.0657469
him 0.13208365 -0.009043704 0.011574314 0.0048433687 -0.013492374 0.07864467 0.037011534 -0.0119707305 -0.0349746 0.068912275 -0.008180854 0.05827158 0.07728402 0.07247365 0.10295486 -0.112055175
most 0.22852889 0.0849907 -0.010052803 -0.005393841 0.08185415 0.057610933 0.08817815 -0.024375016 -0.03666144 0.1520505 -0.05693621 0.13259864 -0.046608128 -0.009796833 0.100788906 -0.13286547
don't 0.32599136 0.017817883 0.07846144 0.07420447 -0.032990564 -0.010762858 -0.0002977312 0.07451537 0.10319706 -0.06592824 -0.0014841398 -0.059437763 0.013041623 -0.049167268 0.12164268 0.034267463
made 0.10469735 0.015201302 0.034511507 -0.010943989 0.020857085 0.05787325 0.018277578 0.04652055 0.052620374 0.030702557 0.020828966 0.056385774 -0.06386218 0.055522654 0.03655295 -0.0069320993
its 0.2647087 0.044839088 -0.10967055 -0.08363695 0.040661126 0.09617504 0.10526016 -0.12681152 -0.075166024 0.10863696 -0.073276915 0.091750875 0.011468466 0.055833295 0.09953467 -0.03563067
then 0.25956944 0.091640376 0.0021899394 0.044815592 0.03631516 0.0074861934 0.07529094 -0.0026359581 -0.043353226 0.037130088 -0.04535695 0.08987228 -0.029192628 0.034725454 0.15581216 -0.020992262
way 0.22254154 -0.038631212 0.10218205 0.13684316 -0.015174055 -0.030227585 -0.06797818 0.07360256 0.08612861 -0.045060553 0.019700404 -0.08534323 -0.2110646 -0.1021172 0.1783883 -0.08231116
make 0.13200381 -0.017529236 0.11741046 0.1149382 -0.06370088 -0.05793128 -0.036139507 0.058775466 0.04332272 -0.019113319 0.028162433 -0.033164643 -0.16981943 -0.045699272 0.018658038 0.0462627
them 0.10167435 0.025454879 -0.044753216 -0.017224662 0.0075283335 0.060470313 0.0143944435 -0.06459937 0.005779629 0.10494364 -0.03996709 0.036426734 0.046085734 0.041692324 0.09264614 -0.07813025
too 0.22434533 0.009945058 0.010023816 0.050662175 -0.039646115 0.017530778 0.074408196 -0.025575401 0.044220384 0.048581127 0.0060458123 0.04881136 -0.013733529 0.015390705 0.10420909 -0.16511612
could 0.29215744 0.04314136 0.023421649 0.07773505 -0.030294942 -0.00419244 -0.047350913 -0.009155794 0.027476976 0.046708178 -0.0011007285 -0.022741599 -0.028921839 -0.07808205 0.08696723 0.015341459
any 0.1757259 -0.08632274 0.076693416 0.12129359 -0.019270375 -0.09025292 -0.023925936 0.049110744 0.08321407 -0.08969267 0.041459184 -0.08165162 -0.09833948 -0.079133734 -0.043281004 -0.026692959
movies 0.17348872 -0.02158303 0.10079196 0.033475123 -0.05055177 0.00641863 -0.017772615 0.050873466 0.123543136 0.0751014 0.048938893 -0.0098751215 -0.17198938 -0.042641766 0.08453352 -0.11721243
after 0.20110925 0.07357993 0.0367001 -0.028893113 -0.096460916 0.05876616 -0.007858392 -0.047296338 -0.038988985 0.030946732 -0.016436735 -0.0019855753 -0.0334638 0.016730377 0.16373779 -0.051638395
think 0.22144665 -0.014110338 0.02440631 -0.014943764 -0.020161392 0.0026456227 0.01631777 0.027477276 -0.015314575 -0.0058007515 0.032028038 0.02574829 -0.06864232 -0.03444123 0.121517405 -0.028592845
characters 0.09678504 -0.024530524 0.013919704 -0.032447305 -0.02307994 0.047331743 -0.012252563 -0.032408167 -0.04541098 -0.011228219 0.030772144 -0.025367865 0.06582351 -0.016639424 0.10706795 -0.06379865
watch 0.16851485 -0.01270699 -0.03243485 0.038643956 0.012928042 0.03863101 0.054796107 -0.042834703 -0.025644183 0.074582964 -0.01764096 -0.0020525781 -0.08876552 0.017289462 0.08068463 -0.029052362
two 0.2618203 0.013286258 0.10554392 0.06894056 -0.027245568 0.008421486 -0.06731454 0.025169801 0.029060656 0.013394805 0.055593863 0.0017986831 -0.006347031 -0.06798984 0.10924393 -0.06393487
films 0.21965025 -0.015108992 0.105867565 0.021374647 -0.052536782 -0.011608026 0.009222007 -0.000976265 0.07549679 0.09560981 -0.049827453 0.025233865 -0.028866302 -0.04586508 0.18649113 -0.12947102
character 0.14105761 -0.006152248 -0.0005830229 0.05592983 0.021227023 -0.0354311 0.0550682 -0.006819576 0.039357774 -0.018383212 -0.023493838 0.043169882 -0.09751387 0.018472727 0.017082646 -0.061625652
seen 0.14453225 -0.014227709 0.036074694 0.060892038 -0.0065657627 -0.047699656 0.006781601 0.016603954 0.067040294 0.05174204 0.058278993 0.007822295 -0.13834018 -0.11983538 0.08250269 -0.064208776
many 0.082376115 0.0034536177 0.044156525 -0.024581008 0.044398192 -0.052611243 -0.035648227 -0.031256095 0.030292084 0.02839413 0.02872666 0.0066259434 0.022093376 -0.027088752 0.034960143 -0.017811244
being 0.19040242 -0.008103051 0.112334065 0.1382823 0.010007023 -0.040110894 -0.04461123 -0.030049458 0.15689845 0.0062486343 0.07350268 -0.10099546 -0.1894864 -0.11120637 -0.033139344 -0.014517288
life 0.19401753 0.10347955 -0.013121342 -0.01850722 0.04159274 0.085663706 0.096440524 -0.092336535 -0.045525223 0.037204456 -0.035333566 0.054348674 -0.047604267 0.035688467 0.08483145 -0.078784384
plot 0.17429653 -0.017002756 0.026744395 0.031101339 -0.07542217 -0.04748164 -0.05958926 0.01593458 0.02491032 -0.053404186 0.055362545 -0.093537055 0.0053286427 -0.07018643 0.06878359 0.054534975
never 0.20966123 -0.0335048 0.12160205 0.06998493 0.022737095 -0.030440392 0.0073251566 0.0392683 0.10802694 -0.036921117 0.046942554 -0.034343414 -0.22727817 -0.057397056 0.039554067 -0.015708411
acting 0.122996174 0.0049307593 0.08655563 0.030461797 -0.065404266 -0.014020983 -0.077950396 0.06977688 0.06051547 -0.0076549794 0.0045513827 -0.059493247 -0.0006913355 -0.052889727 0.11119183 -0.06833439
little 0.1352518 0.04590584 -0.06967598 -0.106414855 0.0062123584 0.09127346 0.15884273 -0.13501333 -0.034625787 0.14242816 -0.12846634 0.09133592 0.01659184 0.0348201 0.10718984 -0.09784753
best 0.13659678 0.10690709 -0.10781254 -0.14042513 0.1268423 0.19024485 0.18189923 -0.15661442 -0.063869454 0.18825655 -0.13141926 0.15060475 -0.07256231 0.09860816 0.15581076 -0.10859851
love 0.17160282 0.102923304 0.0057943305 -0.0612546 0.09745062 0.072307214 0.06461898 -0.04215604 -0.044948127 0.076507114 -0.027288133 0.0877022 -0.07412036 -0.009404742 0.06518581 -0.09106651
over 0.1527713 0.038641423 0.029550323 0.027528776 -0.09187103 -0.006913335 -0.01011464 0.05851379 0.093132325 0.04267658 0.039469417 0.037165083 0.011551563 -0.012368509 0.14157914 -0.042955637
where 0.17737195 -0.0189995 0.06704736 0.13355367 -0.11235572 -0.027485209 -0.10426286 0.039706744 0.102543764 -0.070854075 0.1057153 -0.09355894 -0.07899103 -0.09257813 0.053122114 0.054116737
did 0.17252223 0.06448453 0.009465407 -0.016932048 -0.08867392 -0.014332675 0.0034967053 0.022660261 0.027625728 0.117127985 -0.025003735 0.03412302 0.001672165 0.012481762 0.15472646 -0.053511042
show -0.014696172 0.037895963 -0.054317836 -0.10559852 0.06513179 0.124000445 0.087870374 -0.14127237 -0.024816753 0.0701311 -0.093421906 0.08129697 0.021182287 0.005670905 0.020701772 -0.019997548
know 0.17956375 -0.01901714 0.019497612 0.0065003447 -0.042033724 -0.026701348 -0.03501094 0.07001859 0.08374278 0.042681403 0.0048305457 0.041627478 -0.025837088 -0.03266382 0.13177773 -0.13815239
off 0.17647651 -0.019211564 0.06941351 0.036268674 -0.11656662 -0.0071876775 -0.039854333 0.025437314 0.015930539 0.105642326 -0.040145773 0.0011917675 -0.01601689 -0.0243514 0.20827943 -0.14099683
ever 0.20047972 -0.063275434 0.17323866 0.11123459 -0.05821094 -0.025137749 -0.038142823 0.087421104 0.12879398 0.006875624 0.05086668 -0.032951932 -0.15677242 -0.14322855 0.14467484 -0.08238368
does 0.17530243 0.12792549 -0.070336595 -0.08846356 0.09800344 0.09436316 0.116516314 -0.09689457 -0.083521895 0.09842853 -0.12920223 0.068508156 -0.00037711515 0.038695224 0.023650851 -0.10498665
better 0.2429257 0.038320795 0.020119006 0.0342785 0.04113071 0.059503935 0.05959625 -0.01033924 -0.008597997 0.062292233 0.042518828 -0.0007593917 -0.11116982 -0.040673926 0.10208247 -0.07645283
your 0.28713837 -0.009663869 0.06995544 0.010480753 -0.008331395 -0.06588965 -0.034223884 -0.022851028 -0.00069173996 0.018994087 0.018106967 0.008026562 -0.1269312 0.010276714 0.036532048 -0.030037928
end 0.13523608 -0.026555253 0.028068123 0.013920474 -0.009782636 -0.022408701 -0.023485227 0.035449155 0.036813714 0.0013123734 0.02376551 0.048554137 0.01363259 -0.040225014 0.12675002 -0.07806461
still 0.03934657 0.051433876 -0.00231919 -0.021461086 0.11981703 0.0768462 0.047685545 -0.123401314 -0.07075817 0.0037946757 -0.049496185 0.07123094 -0.09526232 -0.0028763434 -0.060568415 -0.042765178
man 0.21099842 0.03794711 -0.03978567 -0.0762541 -0.004858803 0.03959584 0.03755702 -0.082184836 -0.021823999 0.03257597 -0.07884301 0.032282867 -0.0151324645 0.037391867 0.028670482 -0.06124261
here 0.1686103 -0.016855616 0.0812477 0.11515747 0.0020102568 -0.062381 -0.021159159 0.039345108 0.100639574 -0.045804843 0.0522203 -0.03909372 -0.11878972 -0.037165724 -0.04924064 0.05418788
these 0.15897375 0.030174896 -0.019422371 0.020343525 -0.016213354 0.072820336 -0.027305225 -0.061020605 -0.04123028 0.034211718 -0.041820657 -0.0007359124 -0.020004248 0.039210994 0.025474899 -0.08219803
say 0.3099253 -0.100572534 0.09488216 0.08278102 -0.06711481 -0.11483901 -0.022615142 0.042186905 0.10350483 -0.06074777 0.093413346 -0.019695915 -0.19534175 -0.08302912 0.09509113 -0.01626978
scene 0.19384846 0.007924286 0.06817005 0.08823266 0.010991282 -0.050569247 0.013353739 0.0055100634 0.008846664 -0.039328992 0.018170757 -0.02450545 -0.13270898 -0.0800168 0.031620536 0.016157307
while 0.15091704 -0.019500367 -0.047530305 0.037742667 0.017800538 0.02118935 -0.004354044 0.015392027 -0.032394193 -0.018877998 0.012927102 0.05021941 0.05688169 0.0242504 0.13065428 -0.030743849
why 0.27462673 0.051479977 0.010091226 0.014173872 -0.06942155 -0.022371935 -0.044579912 0.05891931 0.010917655 0.036712546 0.028971823 -0.0031940013 -0.21489568 -0.0442642 0.163058 -0.027833289
scenes 0.029959628 -0.027509833 0.051695168 0.026735896 -0.052788038 0.016952671 -0.07928828 0.017442923 -0.008756407 -0.069000885 0.049651057 -0.05333766 0.032692313 -0.06920806 -0.0070154103 0.030434445
go 0.0881211 -0.041715555 0.09379898 0.10645537 -0.023984523 -0.04413049 -0.088711254 0.07537221 0.09787164 -0.026877247 0.04455167 -0.10376176 -0.058402788 -0.11494739 -0.016160283 0.09331935
such 0.103183806 -0.06784388 0.046636235 0.0208605 -0.062714234 -0.07148499 0.022241319 0.06923206 0.05115021 -0.015046912 0.054018997 -0.035426103 -0.03210901 0.01815907 0.053604934 0.0041096574
something 0.16119994 -0.05131095 0.0927408 0.101218894 0.123563424 -0.055470802 -0.01903443 0.0032021035 0.12148642 0.053202197 0.07314914 -0.06729392 -0.27680594 -0.14944854 -0.04185316 0.03539852
through 0.10918181 0.06000442 -0.01893604 0.003899822 -0.0035011503 0.017256865 0.056507308 -0.048665553 -0.0030248282 0.113768116 -0.008439648 0.032937672 0.0630463 -0.009106584 0.1093359 -0.08210176
should 0.2990932 -0.07784108 0.13247928 0.063248605 -0.11337199 -0.11441516 -0.07097092 0.08081889 0.10624547 -0.04026633 0.030740157 -0.07420075 -0.14397459 -0.092976235 0.17144905 0.020865703
back 0.22400303 0.027235689 0.09362112 0.09271775 -0.015892865 0.014601293 -0.031800736 -0.04830789 0.049604356 0.021044526 -0.019754764 0.03820047 -0.12491009 -0.0893639 0.12692697 -0.07773561
i'm 0.15104182 -0.045851454 0.15620062 0.11612421 -0.06456062 -0.1105978 -0.021144751 0.076677345 0.07837276 -0.009158821 0.06751626 -0.114974454 -0.13150805 -0.11824914 0.06144561 0.05592483
real 0.07126364 -0.020861354 -0.0271726 -0.0441744 -0.035276033 0.02481573 0.012422704 -0.037239518 -0.023395987 0.06513264 -0.07391028 0.077975795 0.013000269 0.0612842 0.054483254 0.0029355765
those 0.11193138 -0.025171261 0.010950872 -0.0036003697 0.010110352 -0.052271627 1.7649581e-05 0.022185821 0.083664745 -0.041666035 0.0502824 -0.033636104 -0.07935549 0.0033318251 0.00798276 0.015538829
watching 0.13261314 -0.026304422 0.05186282 0.011992082 0.055850673 0.008046736 0.009492261 -0.04800925 0.102737136 0.04312967 0.03351476 0.0130767245 -0.14355412 -0.105579555 0.052394766 -0.034985427
now 0.09851021 0.0032394857 -0.0708178 -0.026406068 -0.036501214 0.07161735 0.029825987 -0.02859548 0.019318277 0.030023642 -0.030035466 0.05957311 0.07317602 0.070013836 0.08483316 -0.028128274
though 0.21413355 0.09664269 -0.062154107 -0.066527866 0.1053075 0.10871191 0.0819876 -0.07969282 -0.09557671 0.11349958 -0.100262865 0.12844642 -0.04582907 0.07068616 0.06154369 -0.013889457
doesn't 0.10074283 0.011753354 -0.07060416 -0.052576065 0.03818367 0.082063235 0.0015909992 -0.07417492 -0.016667536 -0.0071033766 -0.038376607 0.055240158 -0.04437993 0.0066713146 0.13215218 -0.0839293
years 0.21532992 0.0076205814 -0.07557864 -0.07007083 0.031795487 0.050300326 0.038937345 -0.010518404 -0.03944079 0.08406505 -0.092625216 0.065545686 0.08200504 0.032772582 0.16404231 -0.08845303
old 0.18101189 -0.07905934 0.05055545 0.07460799 -0.031640656 -0.07032033 -0.01991825 0.028912662 0.06346119 -0.043249417 0.033191 -0.046573877 -0.017026402 -0.10116912 0.024345385 -0.012951268
thing 0.072719164 -0.10971166 0.15036926 0.14312762 -0.043166503 -0.09989151 -0.06846562 0.0719131 0.1671222 -0.020434197 0.13760799 -0.12823918 -0.20109531 -0.13830778 -0.02667877 0.046289135
actors 0.055806518 -0.02456292 0.017675107 0.040709052 -0.03163841 0.037396464 0.041673295 0.015001892 -0.022582654 -0.029345585 0.034721904 0.030610453 -0.014735305 -0.04337851 0.04315038 0.045368426
work 0.2357056 0.04228048 0.024601748 0.014170846 0.023259629 0.016030455 0.029838085 4.8269532e-05 0.018917197 0.10937684 -0.029218053 0.0831397 -0.070465505 0.038773652 0.11947879 -0.16217741
10 0.36700585 -0.00013465335 0.19900797 0.07545654 0.059189063 0.11249003 0.21415283 -0.11810345 0.1523122 0.23602797 -0.07956237 0.097138554 0.1642709 0.037718218 0.29254445 -0.32687265
before 0.18186404 0.070100434 -0.040446583 0.004036195 0.00064595795 0.0010114015 -0.012195313 0.01870006 -0.0071292957 0.0853453 0.014411143 0.017557254 -0.046175204 0.015945237 0.14875413 -0.026865268
another 0.06222668 -0.037045036 0.033270568 0.020319058 -0.048104927 -0.091799974 0.004047326 0.0957105 0.06408971 -0.06834657 0.081472225 -0.07534271 0.041166104 -0.009501934 0.020875167 0.06219211
didn't 0.19571327 -0.04993812 0.16618265 0.14298351 -0.10824623 -0.06378766 -0.110888384 0.13610895 0.09524929 -0.05369918 0.05926351 -0.12899995 -0.06368712 -0.06863255 0.05435793 0.06928573
new 0.06475549 0.024272494 0.030187868 -0.04008666 0.09322807 0.013700316 0.08882075 -0.026280187 0.0095484 0.08105484 -0.05540651 0.07375535 -0.12631726 -0.06682317 0.0033834754 -0.019247707
funny 0.23297888 -0.02865316 0.108726166 0.037787803 -0.06396896 -0.018989213 -0.03810331 0.092391975 0.12205082 -0.04215332 0.023997232 -0.09608547 -0.05382379 -0.06652432 0.05710679 0.02061142
nothing 0.14804767 -0.025706535 0.06018896 0.13814571 0.014918809 -0.082649946 -0.02575744 -0.014586361 0.11079571 -0.0021454368 0.09275618 -0.07339303 -0.15537366 -0.15199684 -0.02127695 0.030745342
actually 0.02016193 -0.038947072 0.042859763 0.07051028 -0.047816735 -0.057212126 0.0042820405 0.06361436 0.0765459 -0.08009253 0.07933062 -0.015574953 0.025793783 -0.080702394 0.098521106 0.056203786
makes 0.01708869 0.06968424 0.006195176 0.015149711 0.04084473 0.009307371 -0.0060943123 -0.0118951425 -0.05612503 0.062086575 -0.03239037 0.0028280527 0.046054587 0.0660378 -0.014590643 0.005235178
director 0.02347614 0.04015322 -0.024873193 0.022750374 -0.009944962 -0.049342453 0.028988225 -0.008347288 0.017591937 -0.041856855 0.013924841 -0.04368124 -0.015414814 0.009000299 0.08421232 0.022733964
look 0.09949702 0.00046906836 0.04080883 0.018579366 -0.02133397 -0.06075766 -0.06773961 0.037492357 0.031547625 -0.050988372 -0.0053947293 -0.045256253 -0.059548803 -0.051388677 0.10323227 -0.039938744
find 0.24311672 -0.05731066 0.07422107 0.043445326 -0.07653702 -0.021564439 0.006068326 0.0667554 0.10699013 -0.019796252 0.078191176 -0.01574159 -0.1832785 -0.035439443 0.21114202 -0.027822837
going 0.15925112 0.060958773 -0.057787076 -0.0046386695 0.052146655 0.029327512 0.033324156 -0.057415973 -0.08172459 0.017472262 -0.0614962 0.045135193 0.009911688 0.047702137 0.09657648 -0.079038754
few 0.11754259 -0.067622766 -0.00028651097 0.0076813973 -0.04952853 -0.0010431735 -0.014417639 0.015823873 0.08572225 0.011443007 -0.003799119 -0.07821375 0.027016668 0.0013059208 0.092750885 -0.055271804
same 0.07558194 -0.03314883 -0.027897319 0.04411318 -0.034013953 0.0229956 -0.0086657675 -0.028438592 -0.01649707 -0.03814444 0.0059994366 -0.05816052 -0.05435785 -0.0028316078 0.036331374 -0.03210494
part 0.24350248 -0.105925836 0.09249882 0.08491653 -0.027471831 -0.08422005 -0.07224226 0.027978884 0.099176034 -0.040044297 0.050246894 -0.04906448 -0.11795472 -0.09242361 0.20536083 -0.0014282295
again 0.14766766 0.019831738 -0.06056992 0.020584254 -0.029004317 0.09821999 0.066105224 -0.022116177 0.04402827 0.121743664 -0.035971314 0.061708726 -0.016048811 0.040012147 0.10538583 -0.09287559
every 0.1753875 0.029011976 -0.058039658 -0.021560397 0.0010445319 0.047408424 0.051836967 -0.04225486 -0.019841872 0.066414185 -0.062099267 0.08827361 -0.001085675 -0.027573932 0.25290346 -0.11842364
lot 0.10262207 0.037916698 0.06711637 0.050477106 0.02518148 0.005001896 0.0126220705 -0.0022636787 0.017056864 0.05908713 0.05720221 -0.033761565 -0.12846842 -0.06567528 0.12214789 -0.06493603
cast 0.08751225 -0.06474527 0.011574954 -0.017712371 0.02001997 -0.028468294 -0.03634527 -0.020096302 0.03330098 -0.034059502 0.06663094 0.009522187 0.075412564 -0.043013223 -0.008508569 -0.014329339
us 0.18653616 0.036513317 0.013946835 -0.01442418 0.00922287 0.08036164 0.05152265 0.008753002 0.08588957 0.040019322 -0.025879666 -0.0037753289 -0.099865705 -0.07270286 0.038202103 -0.08556105
quite 0.13792843 -0.0043259887 0.09231428 -0.0071273632 0.038616046 0.00979096 -0.008745829 0.028971083 0.06064457 -0.02623677 0.0033295779 -0.047526404 -0.057986822 0.005798208 -0.040236257 -0.0062460983
down 0.13724697 -0.0348842 -0.011269569 0.022745617 -0.05617665 -0.03996617 -0.023699593 0.019811658 -0.0073409392 -0.010073872 0.053840913 0.00602482 0.0060207946 -0.026187772 0.052338045 -0.0628659
want 0.17440096 0.0038046679 0.019723212 0.048496466 -0.09045365 0.015530125 -0.055843875 0.050189946 0.024996499 0.01777062 0.048606385 0.043435153 -0.007154717 -0.03501131 0.13561103 -0.06355199
world 0.02915496 -0.011635372 0.096656345 0.06401269 0.032069966 -0.040128596 -0.06599595 -0.046717316 0.056091264 0.011443147 0.0089615565 -0.041767225 -0.16859673 -0.012822531 -0.104351476 -0.0027178563
things 0.14842376 -0.06095847 0.06880492 0.09149332 -0.08510387 -0.06557315 -0.06843278 0.063411206 0.023365768 -0.0770665 0.023119666 -0.059762225 -0.05599637 -0.023425529 0.032209225 -0.0068296036
pretty 0.09075991 0.020296872 -0.014843699 0.025058541 0.0048901415 0.013170395 0.040859807 0.009281723 0.032900944 -0.015715428 0.027917707 0.036327064 0.112738155 -0.013714979 0.03514949 -0.0298052
young 0.106867805 -0.0012990362 -0.0010710575 -0.024024155 0.025744645 0.025551816 0.012466889 -0.037905186 -0.02472792 0.075762935 -0.003787821 0.0060814503 -0.07437049 0.0012091809 0.010346659 -0.073731974
seems 0.18656936 -0.06299406 0.104795136 0.025434572 -0.052632034 -0.05870873 -0.0066137556 -0.011483149 0.023357121 0.032300413 0.047040835 0.010055245 -0.079042874 -0.018173458 0.1411607 -0.06365961
around 0.1425081 0.08568939 -0.07933954 -0.030831413 -0.055765264 0.011247796 0.053681202 -0.009935288 -0.037290797 0.08476828 -0.09184661 0.06611851 0.07004077 0.09352876 0.08049664 -0.06933602
got 0.08543067 -0.006860599 0.0012055242 0.021076465 -0.06771175 -0.07216105 -6.3688116e-05 0.031884182 0.066048235 -0.032899167 0.07700529 -0.07515728 -0.028009912 -0.061865173 0.00474915 -0.017993718
horror -0.026801888 -0.06330562 0.006248134 0.009737302 0.046303224 -0.047424525 -0.0071938448 0.021998122 -0.014974976 -0.0063111377 0.06140584 -0.02149621 -0.046911925 -0.0388339 0.005609452 0.044477552
however 0.1814286 -0.08436375 0.041930757 0.03757454 -0.011510215 -0.0023412285 -0.060803857 0.061164547 0.04567087 -0.009937087 0.08162459 -0.04182338 -0.13878046 -0.111438185 0.101635665 0.05080991
can't 0.0595456 0.07467538 -0.01669191 0.009725143 0.052657157 0.06142769 0.043599144 -0.09741699 -0.005324125 0.022424925 -0.03233384 0.03247769 -0.06319225 0.01296184 -0.062053088 -0.016047657
fact 0.087189265 -0.040709704 0.007676213 -0.00982083 0.024939587 0.008940963 -0.0017459166 -0.016721046 0.057274066 -0.008542222 0.08934237 -0.070046686 -0.1099059 -0.031436957 -0.051614795 -0.00630338
take 0.18388498 0.023815922 0.06515153 -0.02121207 -0.07359496 0.04104389 0.006790128 0.028462702 0.050388824 -0.018033177 -0.03852836 -0.013398362 -0.017657835 0.01752903 0.16858687 -0.026756553
big 0.14346293 -0.018556802 0.030360565 0.0369763 0.11050596 0.037272803 0.07144613 -0.04243285 0.006234486 0.034510065 0.042158343 0.06424982 -0.0997127 -0.06667705 -0.059893087 -0.073504485
enough 0.2953826 -0.0076961135 0.09533927 0.073012404 -0.056009997 -0.013943414 -0.07187647 0.0846578 0.06578371 -0.01404553 0.08761098 -0.020837039 -0.27710435 -0.13005865 0.28902456 -0.025418555
long 0.16744651 -0.026895514 0.07147606 0.016766932 -0.047883596 -0.035761997 -0.004017001 0.053791665 0.023518708 0.014047082 0.04184311 -0.060302023 -0.0060380837 0.0016917768 0.001856488 0.023783555
thought 0.122317165 0.016344462 0.039316583 0.058888867 -0.07010875 0.013833101 -0.003062369 0.04845777 0.0031209465 -0.035367046 0.027917346 -0.058956005 -0.12090092 -0.057325706 0.04306298 -0.009642706
that's 0.18994156 0.06222512 -0.0019263786 0.045980353 0.057541445 -0.003980738 0.001483564 -0.06143579 0.0046025603 0.044301417 -0.05265263 0.071507804 -0.08552012 -0.035253756 0.10821723 -0.058596205
both 0.17128955 0.080191806 -0.076707035 -0.07514805 0.058513977 0.116291225 0.16061333 -0.16340421 -0.085764326 0.1622277 -0.06382486 0.12610348 -0.09555203 0.05826613 -0.00020611876 -0.09476019
between 0.1341772 0.022899207 -0.05207968 -0.022796607 0.07353281 0.034409806 0.07091945 -0.03466693 0.0113383215 0.04629203 -0.05522172 -0.0113348495 -0.01857603 -0.013752531 -0.018468462 -0.045888357
series 0.16306554 0.019225461 -0.03084149 0.006854955 0.087432615 0.09669633 0.042928804 -0.033425666 -0.002620473 0.016203092 -0.00410588 0.06446361 -0.077095956 0.022388099 0.054441005 -0.03133348
give 0.19744647 0.082187295 -0.0034678935 -0.0011507997 -0.03107648 0.015343036 0.08993891 -0.053545132 0.012942636 0.08358332 -0.062274896 0.037575595 0.014688029 0.0057791383 0.1567156 -0.12167842
may 0.20909078 -0.020599656 0.042869925 0.06426547 -0.0064593363 0.015499765 -0.032763448 -0.009533834 0.023834107 -0.012688981 -0.03589811 0.05919123 -0.10140001 -0.02449799 0.09737308 -0.02970574
original 0.14052203 -0.059809443 0.03706936 0.013380241 0.008768948 -0.0013018132 -0.0072870646 0.052146323 0.01864661 -0.038417492 0.0050792447 -0.033442076 -0.03998007 -0.021173377 -0.01627637 -0.002827887
own -0.010436936 -0.00094071485 -0.0077707404 0.02273655 -0.021486986 0.0031392109 0.07554991 0.025037527 -0.015514157 0.07026395 -0.072617896 -0.02082187 0.0017268605 0.02539753 0.049448103 0.007228418
action 0.08141226 -0.012565145 0.022109656 -0.01467136 -0.0020188682 -0.019830331 -0.026604893 0.024806017 -0.00348495 0.04343833 0.0017386506 0.023350779 0.00940358 0.04857278 0.08834893 0.0019982716
i've 0.29625654 0.0536902 0.0017670259 0.073151566 0.011303651 0.059864245 0.0767294 0.02703881 0.019110162 0.13936159 0.017642682 0.08597377 -0.08676249 -0.043673158 0.14835101 -0.14738657
right 0.10501399 0.029338319 0.019757448 0.0012372041 -0.033279166 0.022639154 0.004172389 -0.019113716 0.0192164 0.0418342 0.06728422 -0.010763035 -0.03698269 -0.06236757 0.021685703 -0.07821311
without 0.13533866 0.07246845 0.0071958974 -0.03437346 0.06355636 -0.013290643 0.07684818 -0.06537525 0.052921813 0.07236462 -0.010906642 -0.005343064 -0.13607498 0.00027535838 -0.0062326146 -0.0668592
always 0.15423967 0.11414286 -0.1695123 -0.13984287 0.1505064 0.12271551 0.16185836 -0.14681815 -0.08526172 0.17385398 -0.14908978 0.15701589 -0.081144854 0.08132193 0.10822926 -0.15064962
times 0.016888779 -0.002307597 0.017388126 -0.028304145 0.026186395 -0.0026272302 -0.006758322 -0.029416764 -0.008280676 -0.0055455985 0.004008519 0.062174994 0.0025053318 -0.018997567 0.014436133 -0.06028379
comedy 0.06887429 0.005345248 0.042958546 0.07327713 0.08182618 -0.008392371 -0.017098267 -0.037115715 0.05562538 -0.08784539 0.10235787 -0.08777009 -0.17751127 -0.029642718 -0.114461996 0.102541186
point 0.097143345 -0.057737567 0.15495956 0.11032602 -0.03181607 -0.13056913 -0.05069968 0.070042886 0.097452305 -0.08469774 0.09652758 -0.08535338 -0.09098656 -0.072518855 0.13030857 0.037247196
gets 0.067198105 -0.020289024 0.038966727 -0.035117146 -0.0045002443 0.046071153 -0.03263185 -0.01515019 4.7545203e-05 0.032654162 0.0072264085 -0.000636263 0.022727394 0.019746497 0.030115848 -0.02733445
must 0.2222811 0.05816147 -0.10760662 -0.06854825 -0.0039010865 0.119885035 0.06803609 -0.08757494 -0.031786807 0.10006411 -0.11868823 0.06926882 0.03507488 0.040648535 0.096657984 -0.050829653
come 0.14661111 -0.009885242 0.05850916 0.03164414 -0.007873498 -0.0021775996 -0.04983284 -0.0032951168 0.07309326 -0.01281769 0.035650212 -0.037381053 -0.11308455 -0.09731993 -0.011692523 0.031012706
role 0.12161894 -0.0031256082 0.008994355 0.0739374 0.0009004557 -0.060024913 -0.012763468 0.06336783 0.07396207 0.021774398 -0.04242655 0.038908117 -0.04586332 0.005267199 0.055148643 -0.04611539
isn't 0.15239045 0.048252277 -0.008272609 -0.0047189156 0.07813373 0.035017323 0.03476275 -0.027293948 -0.045631368 0.060461912 -0.032641023 0.011488052 -0.069137536 0.063636824 0.055511933 -0.04873591
saw 0.116940394 0.06486772 -0.14106198 -0.02699871 0.049215533 0.12460331 0.032135945 -0.04568704 -0.09480707 0.06829133 -0.050239135 0.059585813 0.06435377 0.10828209 0.10103496 -0.0025552034
almost -0.034661375 -0.045962326 0.0007894555 0.048494734 -0.036330335 -0.029640153 0.022248833 -0.004351858 0.056042455 -0.04065805 0.005042158 -0.06718323 0.04003896 -0.02288969 0.05097711 -0.010908614
interesting 0.14878218 -0.014713731 0.058233604 0.05928774 0.06705003 -0.024113622 0.010971583 0.01752172 0.05440117 0.04408384 0.038914077 0.012790538 -0.028839681 -0.04137972 0.03369389 -0.017938938
least 0.24444966 -0.0572808 0.13657665 0.06315669 -0.06924285 -0.06226351 -0.021772685 0.062458277 0.112742156 0.05227805 0.0748538 -0.0010018895 -0.20181762 -0.08453922 0.18910187 -0.025772046
family 0.06817162 0.0020761953 -0.01979615 -0.020587552 0.061323855 0.008418447 -8.50637e-05 -0.02687307 -0.06337961 0.037845265 -0.0014839628 -0.014126258 -0.018252393 -0.020136 0.02617204 0.027978227
done 0.15022625 0.026038967 0.06393909 0.0520623 0.037204567 -0.012388803 -0.004411763 -0.017517898 0.044609807 -0.016161557 0.04234685 -0.019097328 -0.13883314 -0.106415085 0.0951678 -0.072540395
there's 0.26119757 -0.0013381673 0.079372615 0.016591407 -0.04213025 -0.045650035 -0.05512556 0.053954914 0.007736467 -0.034495912 0.040016286 -0.04792377 -0.09952034 -0.02190819 0.09164157 0.0114976885
whole -0.019324003 0.06149035 -0.019813413 -0.027511112 0.051597245 -0.01286611 0.014269155 -0.071074426 -0.055342935 0.023405358 -0.08039845 0.0067910436 -0.031105028 0.0030344857 -0.024407566 0.0274122
bit 0.15000382 0.04052312 0.011395251 0.03596761 0.05788185 0.017070727 0.01103784 -0.053599786 0.060280588 0.008504667 -0.032397516 0.0012597832 -0.13965194 -0.034448795 0.14975822 -0.011747397
music 0.1608094 0.063684486 -0.047948305 -0.034010377 0.048122633 0.08501043 0.100643195 -0.07995568 -0.035182107 0.060668394 -0.03772066 0.094504334 -0.0048189415 0.027143644 0.021541571 -0.050147425
script -0.011392736 -0.034474652 -0.020523125 0.028544573 -0.02240689 0.013545314 0.0013522946 0.02360943 0.01431077 -0.013468459 -0.00046718452 0.008511631 0.07970058 0.041033685 0.07605831 -0.0054216366
far 0.17747441 -0.04360798 0.08889952 0.010684956 -0.026429716 -0.007608694 -0.016045796 0.032351308 0.079336315 -0.045128133 0.0509401 -0.0045636836 -0.018071758 -0.001761027 0.10669709 0.008267389
making 0.19574943 -0.019321198 0.03898786 -0.03749994 -0.0048793247 0.06795679 0.07369807 0.015373937 -0.04216924 0.04675752 -0.0140693225 0.008994257 -0.005470355 -0.010471954 0.13891469 -0.060984176
guy 0.14089124 0.037848193 -0.043177254 -0.009089346 -0.087948784 0.013397795 0.010316274 0.09097893 -0.025537066 0.05604752 -0.024523763 0.025760863 0.027444893 0.045726284 0.107477516 -0.005516185
anything 0.13117087 -0.07438831 0.18862247 0.1687948 -0.03854242 -0.12014837 -0.02928935 0.1007712 0.15777716 -0.017315889 0.077737994 -0.07295962 -0.16906989 -0.09259847 0.015977185 0.00048033352
minutes 0.24586059 -0.06980818 0.16829018 0.11687336 -0.031027207 -0.14232485 -0.12582864 0.09975059 0.123044506 -0.08221412 0.15161403 -0.10059812 -0.17952915 -0.15927833 0.014423965 0.0042486293
feel 0.16237716 0.08381281 0.034582447 -0.0509627 0.0665026 0.053588133 0.051735453 -0.11086188 -0.025575291 0.09535822 -0.0037929928 0.07581501 -0.113623425 -0.0053295717 0.027185787 -0.12473909
last 0.08809431 -0.010375881 0.090206705 0.011868072 -0.055154916 -0.08382985 -0.092233695 0.08389433 0.037604313 -0.07871251 0.021072047 -0.0024468522 -0.040900227 -0.081056915 0.037424058 -0.050469756
since 0.13708477 0.015529234 -0.06627965 -0.02535872 -0.037588567 0.061911568 0.017078938 -0.06261321 0.0006930039 0.01318111 0.011149515 0.06018354 0.085012555 -0.0043884995 0.09931531 -0.045520663
might 0.14229375 -0.048542477 0.054986246 0.0125680175 0.016208226 -0.038853925 -0.045578714 0.049192388 0.006306208 -0.0213811 0.060083512 -0.02406243 -0.0813414 -0.057320602 0.052307077 -0.05721483
performance 0.14139345 0.011251934 0.02640085 -0.014664063 -0.004016349 -0.027591962 0.013990366 -0.040493075 -0.027582543 0.017654363 -0.05138971 -0.034224354 -0.062863894 -0.029263552 0.038516726 -0.077935085
he's 0.012285296 -0.062518075 0.046593115 0.07545443 -0.08098803 -0.041700423 -0.016541947 0.059510626 0.05132049 -0.089958176 0.066039525 -0.08838857 -0.02368721 -0.047089443 -0.08105828 0.03509213
2 0.048840523 -0.036216173 0.052766535 0.05479611 0.018034458 -0.0835229 -0.010447025 0.08932201 0.048742346 0.0039723753 0.07301039 -0.08676134 -0.055825446 -0.017612841 -0.05408598 0.048875697
probably 0.25656205 -0.05269627 0.15785113 0.084675856 -0.0016373652 -0.011840215 -0.038601916 -0.021948082 0.07864117 0.035396773 0.027239712 -0.06258597 -0.21519034 -0.073951334 0.122156836 -0.04334075
kind -0.02775181 -0.003348367 0.06406563 0.045916803 -0.026551591 -0.043823726 -0.08285906 0.036875825 0.051171035 -0.019140787 0.06869981 -0.031319764 -0.019211378 -0.03938724 0.07142046 0.053932145
am 0.08858055 -0.01818794 0.004900222 -0.017368292 -0.013034311 -0.018263048 0.060150366 0.010769107 0.03094776 -0.016782645 0.014278642 0.063159026 0.117696874 0.06219132 0.02899053 0.02734757
away 0.060270444 -0.064362675 0.0181058 0.048899323 0.022439195 -0.07837038 -0.014914043 0.01571167 0.026180426 -0.08133899 0.057408802 -0.07244 0.009446403 -0.04057619 -0.056057345 0.03126467
yet 0.031252306 0.024377272 0.056362975 0.06074664 0.024900675 0.0045055337 -0.009871604 -0.004621395 0.046528734 -0.07043335 -0.015249494 0.005194975 -0.06756681 -0.06491469 -0.102769725 0.078099884
rather 0.16964331 0.16068722 -0.1279567 -0.09117401 0.08785065 0.12028192 0.14170463 -0.18341726 -0.1477017 0.15989913 -0.093090005 0.18691982 0.062092494 0.13590896 0.05206365 -0.14595549
tv 0.17482397 0.043653004 0.123214595 0.044319373 -0.017934136 -0.057126395 0.020931514 0.054069772 0.10212023 0.07251465 0.041563638 0.020757336 -0.06705649 -0.094024755 0.13511834 -0.05290209
worst 0.17589329 -0.15470396 0.2130976 0.1436181 -0.083554655 -0.15023114 -0.15218197 0.1003515 0.24294704 -0.06711247 0.15386017 -0.13165715 -0.22986116 -0.22585872 0.07140642 0.057080906
girl 0.034080345 -0.040393442 0.067211404 0.023203056 -0.020620551 -0.054024316 -0.06750219 -0.011325878 -0.028429337 -0.028600495 -0.0007583592 -0.018183779 -0.010413119 -0.05527266 0.026385885 0.046670575
day -0.0063668224 0.027818637 -0.005431483 -0.038212944 0.041429617 0.056387533 0.006983489 -0.06101073 0.025657725 0.010844897 -0.041884735 0.010940437 0.021250043 -0.050267145 -0.0005741916 0.037012104
sure 0.09279493 0.07041983 -0.06812559 -0.011678797 -0.0059598074 0.10253199 0.08461802 -0.010075119 -0.022641793 0.023400368 -0.07691261 0.025748456 0.02968891 0.08928447 0.008257836 -0.072206154
fun 0.18530874 -0.044475973 0.07626528 0.048768755 0.0046469374 -0.012111928 0.04804647 -0.0098156575 0.10092355 0.095634535 0.006017855 -0.024352917 -0.077539474 -0.095341705 0.07324087 -0.109239824
hard 0.12433072 0.00019993912 0.0550816 0.059452172 -0.046751197 -0.03192121 -0.0021827035 0.062114317 0.10959163 0.01283388 0.011396127 -0.04119709 -0.19047415 -0.10066091 0.087805696 -0.035632897
woman 0.028159907 0.032821473 -0.020077664 -0.027144954 -0.009098507 0.027449561 -0.035608843 0.009821503 0.044545893 -0.03469654 -0.001975648 -0.014738023 0.026596602 -0.041390486 0.08453237 -0.01799569
played 0.036252942 -0.008921322 0.004171723 0.04319454 0.069085225 -0.019310111 0.04189713 -0.01275534 0.02730113 0.05071208 0.045846034 -0.014664603 -0.115907095 -0.056894872 -0.058946744 -0.05949589
each 0.09585062 0.04073801 -0.035768636 -0.09351077 0.030941742 0.08340888 0.04570967 -0.099949084 -0.07639365 0.04044597 -0.07167888 0.027777446 0.004872216 0.045863405 0.12801291 -0.08955088
found 0.07287915 -0.07302557 0.09359041 0.0010104191 -0.06308982 -0.068700545 -0.03774921 0.020894336 0.028245827 -0.06861019 -0.0020050695 -0.0752277 -0.07356795 -0.033171043 0.012288622 -0.02441319
anyone 0.22875099 0.036122125 0.09548969 0.097111255 -0.03895966 -0.01879264 -0.008633289 0.0012581424 0.06769786 0.077500865 -0.014979524 -0.01587708 -0.039211754 -0.067168355 0.19044417 -0.07716779
having 0.1289909 0.0731104 -0.080836765 -0.0344389 -0.013092355 0.09807158 0.040680278 -0.07079212 -0.0071047232 0.019933801 -0.08078254 0.021250788 0.006923886 0.077590525 0.026607145 -0.03943325
although -0.021721425 -0.01086345 -0.039596073 -0.029186824 -0.010629212 0.04178015 -0.046382736 -0.03566629 -0.01811715 -0.01779009 -0.03157759 -0.022045543 0.046080302 -0.04976677 0.023303475 -0.029178578
especially 0.20339194 0.016264357 0.009500168 -0.0052978564 0.057564285 0.0066561224 0.017811242 -0.026315117 -0.021713674 0.033627562 -0.0141095705 0.0032821458 -0.13367565 0.034659613 0.03696631 -0.08179241
our 0.15980478 0.20462504 -0.0956811 -0.18555997 0.17539023 0.21058984 0.15569542 -0.20040786 -0.12791307 0.1550859 -0.13436803 0.15718532 0.043679517 0.16769207 0.05697022 -0.07140183
believe 0.14694118 -0.0029923152 -0.011069557 -0.042471677 0.037065666 0.059426304 0.03149348 -0.035441704 -0.042917836 0.054476205 -0.02827398 0.08221521 -0.08369588 -0.017711837 0.069978915 -0.09111449
course -0.033685554 0.01148479 -0.037985474 0.03324641 0.028887266 -0.021549145 -0.04395402 0.026751842 -0.014174532 0.030982126 0.041775502 0.023557896 -0.036545515 0.051090036 0.024615718 0.042010926
comes 0.08059277 0.018453956 0.047354653 0.037733007 -0.0039030463 0.05260381 0.030114572 -0.036768053 -0.028420456 0.028996449 -0.012884515 -0.03941684 -0.06888873 0.033692475 -0.05376768 0.0017025109
looking 0.095833294 -0.022044856 -0.0076819514 0.05625874 -0.017429044 0.008254412 -0.012952927 0.053050842 -0.0012578393 -0.002460005 0.021876447 -0.05435827 -0.025328673 -0.034406 -0.03663505 0.053795416
screen 0.060740057 0.049171526 0.008252514 0.0035411485 -0.044251263 -0.00891617 0.01253614 0.009601118 -0.03180989 0.060302127 -0.02293387 -0.0351392 -0.01628056 0.022623286 0.08458299 -0.040494617
trying -0.008628245 0.02675786 -0.0058930195 -0.042794265 -0.032275453 0.057884 0.024838436 0.003434022 0.02633263 -0.00035005016 0.02810643 -0.031008668 0.005931006 0.038872287 0.033875067 0.04592017
set 0.0922254 0.055225167 -0.07012752 0.011233474 0.0011541634 0.053868867 0.09072759 0.024503738 -0.012735914 0.101828 -0.0538502 0.06142609 0.14718486 0.044823777 0.10474913 -0.10647894
goes 0.04439584 0.021449257 0.011302465 -0.04091655 0.05007363 0.0012859702 0.057087112 -0.04907963 -0.043911766 0.002377957 -0.0057599377 -0.012818737 -0.03708019 0.02041615 -0.055877835 0.012153323
looks 0.012343155 -0.021959499 0.0034374548 -0.013979259 -0.0046714684 0.021293925 -0.02937827 0.00621979 -0.0498874 0.05648031 -0.010991143 0.01968897 0.10647064 -0.019330205 0.0066027357 0.053830963
place 0.12287942 0.10940706 -0.13529874 -0.14398448 0.06257412 0.1063616 0.12843376 -0.13706657 -0.105429344 0.18417008 -0.12993738 0.18576288 0.14353938 0.1233099 0.06980062 -0.04755774
book 0.022108424 0.0045774146 0.029574528 -0.019972524 -0.018048247 0.013414842 -0.0068034665 -0.039559994 0.03979736 -0.016391728 0.009315872 0.00636519 -0.001540783 -0.0017371898 0.043966856 0.0481101
different -0.005705143 -0.036563754 -0.041441385 -0.042737905 0.02714834 0.06245385 0.056945574 -0.07050286 -0.0154692475 0.04700923 0.03775133 0.04835633 -0.039489616 0.013319906 0.007817666 0.014435701
put 0.05679798 0.01719644 -0.04480878 0.024827296 0.018816764 0.04941377 0.062328365 -0.005885324 0.02580121 0.04260188 -0.014129776 -0.015124094 0.08866091 -0.0073398794 0.06523327 0.037761446
ending 0.11728881 -0.010844494 -0.04832416 -0.022567187 0.014166348 0.062052775 0.0543025 0.012262961 0.02243282 -0.00037091694 0.01638338 0.042893197 0.057045314 0.012552518 0.09894698 -0.03597142
money 0.003182266 -0.09277958 0.13047604 0.13618135 -0.045575257 -0.07967043 -0.11477177 0.11332549 0.1137383 -0.047665115 0.055946104 -0.042480208 -0.068425804 -0.13265598 0.033377454 0.028999679
maybe 0.18656819 0.04845555 -0.034313753 -0.019173648 0.026855305 -0.028761398 0.039259255 -0.018882485 0.036693007 0.03639158 -0.024598436 0.041154735 -0.038163625 0.046667825 0.18393001 -0.036875635
once 0.11679061 0.105859764 -0.08590557 -0.10989339 0.011578042 0.102488495 0.16204551 -0.07354789 -0.1408534 0.12170224 -0.12694389 0.086179346 0.110517226 0.1363274 0.08140465 -0.119074546
sense 0.14000636 -0.070238285 0.09860145 0.05226635 0.016190143 -0.015491189 -0.033868108 0.010437894 0.08259942 0.014179055 0.027272964 -0.017331185 -0.108483374 -0.078612424 -0.020761173 -0.052266918
reason 0.0052498924 -0.13799489 0.15293416 0.13733011 -0.030104361 -0.18441391 -0.10904873 0.101203375 0.1804403 -0.030748257 0.12372979 -0.162445 -0.13763247 -0.16566089 -0.036433447 0.03977797
true 0.21977696 0.04306588 0.039846946 -0.03743212 0.06504395 0.038811173 0.0649071 -0.030099288 -0.008695952 0.05896639 -0.0975585 0.10429189 -0.0975414 0.012587456 0.103354126 -0.17280605
actor 0.0549869 0.04010482 -0.06580034 -0.07640403 0.089002684 0.08775256 0.10710982 -0.10702296 -0.0790548 0.06021204 -0.089252315 0.12993063 -0.01331428 0.038203754 -0.02916628 -0.085282065
everything 0.13918115 0.07379167 -0.033984143 -0.056905065 -0.04810105 -0.006581239 0.037175797 -0.059242472 0.0068409382 0.014397946 -0.04990214 0.07533257 -0.014331976 0.05204467 0.13225242 -0.07680165
wasn't 0.18654871 -0.09730955 0.25448513 0.16147587 -0.11101299 -0.1155613 -0.19371763 0.11044846 0.21210761 -0.10889639 0.15034953 -0.11563191 -0.24735142 -0.16260901 0.14435093 -0.07691392
shows 0.09040653 -0.062333424 0.07483016 0.010444165 -0.016738351 -0.02011074 0.04524749 0.015906509 0.057719525 0.05062676 0.04049973 -0.051580258 -0.08527544 -0.077509016 0.046656545 -0.012210568
dvd 0.07601412 -0.006572491 -0.0023265027 -0.050059743 0.019043267 0.048157368 0.05572835 -0.044266365 -0.051158424 -1.2199296e-05 -0.06135301 -0.006028524 -0.039498188 0.049239345 0.02092808 -0.054244254
three 0.11359303 0.058272053 0.013329833 0.051788688 0.029831449 0.021914268 0.05209518 -0.04096346 0.037760332 -0.01698544 0.00012099359 -0.029135952 0.017662933 -0.040132128 0.030821973 -0.07832255
worth 0.25929722 0.08716302 -0.045133777 -0.05975584 0.020846112 0.1560951 0.093964115 -0.12461164 -0.0610789 0.10809356 -0.05630335 0.15195943 -0.020065125 0.010378518 0.2376659 -0.19524646
year 0.1637072 0.013528859 -0.0153897405 0.022459984 -0.044216555 0.028808873 0.013364623 0.019063966 0.02852559 0.077007644 -0.080309175 0.07265719 0.036604602 0.025663465 0.1082842 -0.07969546
job 0.105650194 -0.040813327 0.04101427 0.052240748 -0.0061483863 -0.053839866 0.02391817 0.05391856 0.080113016 0.047820363 0.089399815 -0.05157067 -0.11729375 -0.12819386 0.027539993 0.011529871
main 0.13648918 0.07451691 0.01778741 -0.013110714 -0.03958359 0.05975369 0.03210183 0.07147699 -0.0027086854 0.04188303 0.015491004 0.034269743 0.053995233 0.04810264 0.13169959 -0.12698285
someone -0.043616023 -0.040690634 0.15108058 0.05785606 -0.06580999 -0.09753169 -0.13357486 0.1325755 0.097315505 -0.08117892 0.11107093 -0.086585686 -0.08967661 -0.11743096 0.0033390936 0.07695151
together 0.115959294 -0.033824887 -0.00049370097 0.030134952 -0.023561236 -0.009648617 0.01805876 0.014360094 0.04254824 0.017599728 -0.040272865 0.045843337 -0.044844605 0.025238952 0.017008832 0.015007213
watched -0.00897261 -0.020673215 0.059230234 -0.016155463 0.0028588234 -0.03668227 -0.038469758 0.008891564 0.055011593 0.01742029 0.011131515 -0.023761047 -0.113218 -0.03296522 -0.06910437 -0.024886947
play 0.09024546 0.015428636 -0.06398267 -0.013272161 0.029227747 0.07523042 0.07122156 -0.034107372 -0.067524776 0.03814702 0.008261976 0.040309925 -0.067107484 0.00820882 -0.0063199676 -0.014686379
american 0.11136395 0.14066952 -0.0999807 -0.11386453 0.16388656 0.1286639 0.16130428 -0.20740213 -0.1289397 0.12259912 -0.17665607 0.11890951 0.077829145 0.13769147 0.08627201 -0.114526406
plays 0.122202516 -0.08163284 0.1329957 0.052301366 -0.033496626 -0.059582893 -0.05735337 0.0628822 0.10573221 -0.041605204 0.100187905 -0.035360344 -0.11164962 -0.07217956 0.12767266 0.035959978
1 0.1467222 -0.06150229 0.19971621 0.16568147 -0.017340157 -0.052095313 -0.13072205 0.05842039 0.13860153 -0.02454409 0.08349674 -0.12619619 -0.08424642 -0.09974072 0.04890994 -0.07000725
said 0.06318342 0.021513166 -0.00240053 0.038810086 -0.009187361 -0.018770343 0.05328751 0.02244639 0.0010045294 -0.014613792 0.039359774 0.05094098 -0.016086949 -0.028150948 0.0006986444 -0.00065164623
effects 0.09974039 0.12738964 -0.0713678 -0.037456814 0.051671725 0.1344353 0.09579903 -0.02828374 -0.015087085 0.062240016 -0.050866358 0.028878817 -0.066677764 0.043116357 0.09164932 -0.02103864
later 0.11119552 0.017959768 0.03130706 -0.023704944 0.04919579 0.03416181 0.033887785 -0.14575835 0.009773543 0.013550838 0.034644883 -0.00036201437 -0.13495022 -0.071522936 -0.010606597 -0.117673516
takes 0.108574376 -0.005939251 0.08634539 0.04956146 0.062437292 0.018934475 0.016898789 -0.00484558 -0.0058905827 0.03927662 0.013795823 0.009339915 -0.1179763 -0.030836442 0.030255316 0.03430059
instead 0.0988933 -0.050753716 0.20206721 0.2020984 -0.0421385 -0.1764237 -0.07497809 0.13346224 0.15624999 -0.040758714 0.09741215 -0.12157699 -0.17693666 -0.17214788 -0.05345829 0.06395635
seem 0.005557187 -0.0020152074 0.06344389 0.04188953 -0.019123143 0.0062424922 -0.059455782 -0.035789978 0.031208549 0.034128726 0.011232923 0.014327618 -0.0754811 -0.021219395 -0.057593316 0.016627727
beautiful 0.19149147 0.17620856 -0.21084777 -0.18110485 0.16311195 0.21230981 0.18685187 -0.17194821 -0.18020858 0.2102218 -0.1804389 0.18693197 -0.08823316 0.21965271 -0.04086677 -0.15974173
john 0.111332506 0.036051504 -0.013098196 -0.017477082 -0.002127748 0.061680455 0.03943357 0.008470399 -0.0046237963 -0.030582754 -0.016354866 0.04748794 0.013463369 0.04494838 0.0017730189 0.029581143
himself 0.114476584 0.06847482 -0.058870956 -0.039805584 -0.04269261 0.12552619 0.10917362 -0.030400883 -0.030082019 0.10513137 -0.07304368 0.07707799 0.050360918 0.05481889 0.1193585 -0.1332854
version 0.17811361 0.03444784 -0.05896129 -0.062706836 -0.035112586 0.070260264 0.07152663 -0.074883014 -0.008774118 0.039450675 -0.10873546 0.027762325 0.03292675 0.006847092 0.12579632 -0.0429657
audience 0.10115952 0.018215392 0.04720786 0.07047507 -0.07324841 0.0050974335 -0.017643955 -0.0061010458 0.050537497 -0.039684292 0.061694004 -0.040646404 0.06069272 -0.009978454 0.064707376 -0.042864833
high 0.11028985 0.04485489 0.0400278 -0.0064948024 0.07910858 0.019134607 0.015191772 -0.009982694 0.07173859 0.075321406 0.045298815 -0.013645392 -0.1512588 -0.058721688 0.031755004 -0.062001683
house 0.18409686 0.009048726 -0.0030345668 -0.0032835314 -0.029754533 0.057329718 0.06845412 0.020317957 -0.0015189404 0.04606148 -0.045776833 0.0709668 0.0832469 0.009203946 0.09842305 -0.0461023
night 0.09137006 0.042425178 0.018910607 -0.025869077 -0.07331627 -0.027847618 0.050504737 -0.027081411 -0.020384338 0.07069134 -0.035911262 0.007831115 0.030166237 -0.025395097 0.09365216 -0.01692169
during 0.11372728 -0.025402699 0.041123834 -0.015685137 -0.0011223266 0.030475121 0.030471897 0.061319266 0.06650756 0.020058662 0.030818854 -0.024895912 -0.03814323 -0.03769627 0.10812677 0.022958132
everyone 0.197642 -0.037746105 -0.01173921 0.037225883 -0.033246007 0.05512351 -0.028533826 0.041902628 -0.0022065716 -0.0029727276 0.0033738655 0.021620125 -0.0081563685 0.009066329 0.031834237 -0.046614822
left 0.2680394 -0.03214002 0.15688637 0.13702828 -0.1049057 -0.07585463 -0.10307393 0.13323496 0.13139322 -0.07936312 0.07772604 -0.08511246 -0.14572117 -0.09453451 0.18951626 0.04384171
special 0.1149238 0.11213056 -0.08951374 -0.07915902 0.111293785 0.12331626 0.09572757 -0.14880766 -0.13755077 0.11907903 -0.12722184 0.1687779 -0.074705444 0.058807667 -0.06510107 -0.0688579
seeing 0.08707749 -0.0939025 0.15977062 0.066564664 -0.039334938 -0.010001301 0.006531716 0.036318406 0.07731817 0.020357177 0.07913922 -0.081178434 -0.14726996 -0.11367102 0.01847024 -0.06550725
half 0.1301133 -0.029305711 0.12996839 0.06519224 -0.099318594 -0.11456045 -0.042448886 0.039342556 0.08900677 0.0073080226 0.074286886 -0.06484312 -0.08191427 -0.110021144 0.10620098 -0.05748149
excellent 0.121625215 0.13473444 -0.14975008 -0.1654333 0.1286825 0.19493936 0.19479628 -0.14539239 -0.0978434 0.11964673 -0.14920987 0.15304646 0.088420995 0.09624681 0.11762507 -0.061575625
wife 0.008916448 -0.033416215 0.0028204047 0.036292613 0.0049647195 0.044318102 -0.038301993 0.026961898 0.026785502 -0.04264762 -0.02999109 0.017910158 0.01987606 0.027693946 0.063746296 0.024161546
star 0.14357622 0.09318471 -0.015422477 -0.04675883 0.033844974 0.030075667 0.05989367 -0.073781975 0.0087051345 0.009867987 -6.922649e-05 0.016994584 0.014757787 0.036038835 0.062645026 -0.0390611
shot 0.106416926 -0.02368826 -0.0076724556 -0.013807498 -0.049716573 -0.03963186 -0.025695175 0.014156815 0.049891185 0.05493883 -0.029340096 0.008044533 0.055992246 -0.029753538 0.03449701 0.020977013
war 0.121276066 -0.0075674467 0.015281533 -0.023002561 -0.03755955 0.067391165 0.054255873 0.003153959 0.028301658 0.07284469 -0.00954673 0.03998875 0.02283728 0.030816896 0.12834251 -0.045716003
idea 0.119535156 0.102908604 -0.114550106 -0.12623191 0.08277062 0.13261557 0.07630647 -0.15615098 -0.14105204 0.06992137 -0.13422196 0.107519455 -0.032576483 0.08589144 0.0055153077 -0.0789575
nice 0.1261985 0.163525 -0.13746114 -0.0789871 0.0589174 0.09663445 0.09660908 -0.09341249 -0.1201229 0.13103722 -0.16651197 0.13660611 0.05637994 0.10757359 0.13009496 -0.06470507
black -0.011762255 -0.07135237 0.037813578 0.035820257 -0.04871553 -0.001291152 -0.010996695 0.013843391 -0.0052294196 -0.0528949 0.042332176 0.008470846 0.037765995 -0.010548062 -0.01681511 0.040674098
less 0.043083437 -0.0060941116 -0.028880136 -0.023283351 -0.03813448 0.011171812 -0.036264647 0.0279863 0.013587892 -0.024227867 -0.00025557517 0.010912061 0.019084767 -0.060277626 0.079726346 0.050134435
mind 0.120238915 0.14236867 -0.11413731 -0.14863592 0.07674767 0.116749056 0.104177244 -0.14584588 -0.13712758 0.11846 -0.12696962 0.12507096 0.031564385 0.075834855 0.060354028 -0.0019982578
simply 0.12480837 -0.0014375069 -0.0136743905 0.03457875 -0.038949322 -0.07055066 -0.07889959 0.06530245 0.052146915 -0.010002927 0.008526306 -0.030400395 0.009403024 -0.025582733 0.08217272 0.06521588
read 0.0036998747 -0.096262425 0.07561396 0.10009733 0.0026246791 -0.08382817 -0.015544512 -0.033960786 0.13501836 -0.00033735065 0.09250102 -0.032026988 -0.13712835 -0.16645122 -0.110775076 0.11092209
second 0.12571113 0.02086001 -0.06306347 -0.016574876 -0.038261786 0.04117545 0.025828445 -0.04374731 0.016701343 -0.011617472 0.010063054 0.025464984 0.03341022 0.00859478 0.05433355 -0.0033812646
else 0.09849721 0.0016810505 0.07978913 0.11341719 -0.020976936 -0.019289708 0.0044161696 0.08120696 0.11204467 -0.014735923 0.051650114 -0.05399128 -0.09414474 -0.078657925 0.061762128 -0.089945026
you're 0.17260571 -0.007894116 0.049707558 0.101637185 -0.0052338955 -0.024170816 -0.028480532 -0.0006181212 0.09324407 0.0033975116 0.026051579 0.046493307 -0.20468064 -0.09162162 0.12661435 -0.07484235
father 0.10880401 0.0839318 -0.039295394 -0.10510591 0.02781583 0.097088866 0.0774134 -0.08276066 -0.023905503 0.054255623 -0.07469449 0.06576816 -0.07520624 0.028450936 -0.0076316665 -0.03531973
fan 0.08325811 -0.02363734 0.008724367 0.031827487 0.02405504 0.02225435 0.098824725 0.011301196 0.07931426 0.045474194 -0.04462585 0.045649555 -0.022294307 -0.029460482 0.09481167 -0.0839865
poor -0.037246548 -0.031597603 0.037295707 -0.006351235 -0.045911342 -0.057501335 -0.0008788316 0.0712803 0.030359447 -0.08114473 0.075780235 -0.019349081 0.04616443 -0.027920485 -0.020287305 0.005489358
help 0.17030546 -0.028674588 0.002659945 -0.02883354 0.022215623 -0.02214142 -0.043496553 -0.0296489 0.033537637 0.036869563 0.0054291734 0.021362847 0.04306814 -0.019589882 0.10063674 0.0068616197
completely -0.030495994 -0.0881537 0.03175704 0.04891109 -0.03633242 0.0025569815 -0.018291133 0.06270285 0.071366414 -0.056898393 0.058075987 -0.06934388 0.007869897 -0.009530351 0.04273691 0.018630235
death 0.086906284 0.050545022 -0.035969142 -0.038028076 -0.019219836 0.049837153 0.017424768 -0.045560513 0.0062157456 0.022220438 -0.030482333 -0.038050205 0.026464732 0.025639487 0.074976765 -0.022308894
3 0.11310594 -0.23565625 0.2749069 0.2863087 -0.003366423 -0.2216064 -0.19545902 0.17019998 0.22307271 -0.035723917 0.21987405 -0.17512958 -0.28788173 -0.24868296 -0.0011430769 -0.10289665
used 0.15529992 -0.050833512 0.02604252 0.03108005 -0.0022802837 -0.067978084 -0.062974244 0.0566393 0.07725765 -0.020015543 0.033554688 -0.0738199 -0.0460313 -0.042306583 0.12329906 -0.0077720345
home 0.06900895 0.015071364 -0.074294284 -0.055635277 0.025700152 0.004658958 0.06618536 -0.026164863 -0.0069206953 0.08043188 -0.07206664 0.01654927 0.010604981 0.063124046 0.09090992 -0.040970422
either 0.24145629 -0.08462671 0.11764278 0.11157398 -0.06729992 -0.10124255 -0.024636226 0.11184591 0.110617206 -0.076679006 0.067126185 -0.051875144 -0.21404825 -0.09125644 0.13814998 0.02569612
short 0.09632098 0.018747542 -0.0076285894 -0.010796567 -0.006725217 0.04445524 0.036548983 0.0011043164 -0.08333776 0.011124148 -0.013671348 0.03794209 0.029835777 0.07623921 0.05502862 -0.015580008
line 0.13307284 0.017785465 0.07592943 -0.010225857 0.016637431 0.02169586 0.04114057 -0.013329531 0.033846963 0.04823082 0.016846634 -0.03310628 -0.04624519 0.013663331 0.099447615 0.019200912
given 0.05986851 0.09977977 -0.115291335 -0.1421453 0.1157133 0.12703617 0.156196 -0.06739634 -0.11140545 0.10841431 -0.09882032 0.11293771 0.047175415 0.13409302 -0.0038669463 -0.013195944
men 0.117912054 0.0012632217 -0.0012882332 0.013697776 0.021332117 0.012792005 0.013685677 0.043195453 -0.011749363 0.065585926 -0.0019259572 -0.026829015 -0.10670918 -0.07117139 0.027838172 -0.04283431
top 0.13086712 0.14885634 -0.12014194 -0.1344297 0.120479904 0.1245936 0.17703187 -0.1692651 -0.074737795 0.12810107 -0.10901947 0.15168731 0.04308549 0.09377088 0.1190593 -0.07815069
dead 0.09381788 -0.098428555 0.101886466 0.1124446 0.031157777 -0.07683384 -0.02696358 0.05307192 0.11411161 -0.0023637773 0.06495393 -0.08687276 -0.14431532 -0.06634917 -0.05940623 0.020483326
budget 0.1346834 -0.047848266 0.07775093 0.03467277 -0.05935417 -0.046241645 -0.08225637 0.008941673 0.082964964 -0.037883837 0.055201966 0.00030048972 -0.14978217 -0.0938437 0.14447333 0.0019979666
try 0.109612666 -0.012141464 -0.057693504 -0.04286186 0.011103906 0.04206528 0.009044461 -0.06974006 0.017920295 0.038707096 -0.025851684 0.025153339 0.08450337 -0.007541971 0.028945686 -0.062225472
performances 0.07634497 0.033529263 -0.051766764 0.02686746 0.0372605 0.029553765 0.023653124 -0.09383127 0.026573114 0.09245436 -0.010421943 0.03124309 -0.1407168 0.04531192 0.01392096 -0.043227606
wrong 0.2065172 0.0674175 0.040162712 -0.034975532 0.029629828 0.026515162 0.0076539763 -0.024354363 -0.021428294 0.050800472 -0.042818222 0.08244112 -0.0059077498 0.00071582576 0.09836555 -0.0041730814
classic 0.08457342 0.06734682 -0.055362046 -0.06961807 -0.020976363 0.09507374 0.092388704 -0.10202133 -0.024083663 0.11045531 -0.091471314 0.12789294 0.107359976 0.08079165 0.16468368 -0.1015878
boring -0.047963902 -0.0076055075 0.036651865 0.009123069 -0.0573521 -0.085601844 -0.07558112 0.0067193354 0.09188031 -0.014829174 0.0714213 -0.068053216 -0.07063175 -0.10214278 -0.07487596 -0.00916335
enjoy 0.19322741 0.09842526 0.029827466 -0.0045286356 -0.08487669 0.09233674 0.120370075 -0.08076067 0.062877014 0.13560556 -0.04528561 0.07704549 -0.07377665 -0.025510913 0.10651993 -0.14356673
need 0.10275873 0.05141429 0.014287942 0.011754637 0.040504433 -0.035031773 0.058710843 0.0037983777 0.05149422 0.0027592375 0.034649827 0.07629797 -0.081958674 -0.053009182 0.16550657 -0.09986139
rest 0.05517692 -0.027745677 0.05644824 0.13417672 -0.055117793 -0.0834063 -0.080715954 0.06563913 0.14302565 -0.024401532 0.08264189 -0.1146351 -0.08959574 -0.07497153 0.021714617 0.025536759
use -0.008270522 0.06707052 -0.07605355 -0.036912713 -0.03810683 0.03982472 -0.0005138249 -0.06715342 -0.05523126 0.072880805 0.0061683115 0.031834867 0.02557137 0.040817816 0.028495796 -0.08321025
kids 0.07304998 0.01782773 -0.048665732 0.0041901474 -0.01594584 0.00018868926 0.08699409 0.014740731 0.0084483065 0.020640602 -0.045928795 0.076774865 0.0606707 0.07291353 0.11507805 -0.06057815
hollywood 0.10428905 0.06845297 -0.010327039 -0.0022914365 0.035799995 0.030780515 0.0014155125 -0.06362329 -0.004440299 0.08700601 -0.070627205 0.0271354 -0.09864715 0.022292966 0.059365656 -0.09218398
low -0.0014402554 0.05617043 -0.068662375 -0.015085813 -0.032961536 0.0354609 0.037096485 -0.016140275 -0.06634481 -0.029804396 -0.014487062 0.0667193 0.09275099 -0.006073698 0.046293166 0.001300624
production 0.10790522 -0.0067121033 0.042890947 -0.026597438 -0.017059816 0.015634796 0.036087442 -0.0016619188 0.0132493125 -0.050579466 -0.004565076 0.008826455 0.057581786 -0.043944746 0.0027950227 -0.012905251
until 0.10697164 -0.013657176 -0.041857876 -0.015451941 -0.009295771 0.00567944 0.05252428 0.009388122 0.022231692 -0.0233351 0.042775102 0.054565348 0.070824504 0.055740763 0.12357444 -0.01051254
along 0.19076292 0.06282491 -0.015112433 0.034228172 -0.0050322204 0.04203049 0.01613163 -0.037538294 0.032770522 0.0014632624 0.015761295 0.083920576 -0.027825184 0.0038979214 0.0069821025 -0.030472223
full 0.102172434 0.0063263937 0.08638544 0.011070489 -0.06452067 -0.008027598 -0.00068277953 0.09658419 0.06910345 -0.03462709 -0.0030629926 -0.016493035 0.034575365 -0.0452581 0.051716186 -0.04344979
friends 0.0021419586 -0.06923823 0.11030741 0.10455619 -0.024229925 -0.08917817 -0.032962438 0.019876782 0.0935253 -0.068119764 0.115757555 -0.029650485 -0.079642996 -0.15868762 -0.024943747 0.017842434
camera 0.09296756 0.05572564 -0.04484021 -0.0022547334 -0.025167516 0.029573802 -0.0073704547 -0.018798739 -0.05297972 -0.017966349 -0.012566218 0.018607525 0.02969787 0.024347521 0.0542008 -0.047095694
truly 0.05162609 -0.037027083 0.092011765 0.13353111 0.0569791 -0.104373194 -0.046188142 0.021198567 0.08793179 -0.08347452 0.061990347 -0.045295257 -0.20940898 -0.1380682 -0.042769678 0.025334775
women 0.061854746 -0.105438866 0.15350357 0.18317668 -0.031523094 -0.16087772 -0.1415098 0.09433612 0.109628156 -0.090620674 0.13496557 -0.1321051 -0.1537863 -0.17454855 -0.038074736 0.007831287
awful 0.115401044 -0.18347582 0.20845303 0.16082223 -0.11243971 -0.16571692 -0.10725879 0.09284084 0.19794288 -0.14495021 0.18182942 -0.12882484 -0.106706075 -0.13366841 0.15361495 0.05109269
video 0.06940032 0.045577448 0.019692147 0.04293817 -0.07737175 -0.032742392 -0.039380282 0.015041178 -0.024599314 0.01858242 0.03211581 0.005683793 0.013036013 0.004655394 0.116476186 -0.070853055
next 0.04806951 0.023967613 0.0025104668 -0.0240729 -0.012424823 -0.0014921658 0.03968542 0.0076721855 -0.0073772953 -0.026097443 -0.021658543 0.025103396 -0.0020937598 -0.0014738659 -0.00046452085 0.04618895
tell 0.14989607 -0.020904917 0.08728369 0.02678271 -0.02508754 0.052514043 0.020697057 -0.034885548 0.034002982 0.04800737 0.039626677 0.032211944 -0.1445782 -0.06993347 0.12833934 -0.045149494
remember 0.031113084 0.041572064 -0.04990464 0.023576139 -0.031989764 0.0144086275 -0.021963207 -0.013156275 -0.0028319184 0.020821376 -0.06322519 0.053491063 0.041679174 0.058012106 0.046506982 0.014945686
couple 0.08281605 0.03153083 -0.13156115 -0.04475577 -0.0026707747 0.059801146 0.11315209 -0.067953296 -0.07919435 0.09325497 -0.05794285 0.06873199 -0.0067883045 0.100053854 0.019026145 -0.016927565
stupid 0.053316783 -0.11208823 0.14796805 0.11653642 -0.09990643 -0.0732321 -0.073376924 0.124100745 0.118556224 -0.024462411 0.083670884 -0.054986272 -0.10218946 -0.12370503 0.11375976 0.032937124
start 0.059330907 -0.0017070217 0.033180125 0.015448124 0.044174526 -0.03390642 -0.07617308 0.0087449495 0.061507326 -0.0047715376 0.059798174 -0.01690327 -0.045441195 -0.0054929843 -0.03209968 0.024361838
stars 0.1897262 -0.0686769 0.1746446 0.18580307 -0.069373436 -0.08712901 -0.0028817921 0.054189783 0.21718955 0.09628726 0.040100865 -0.092883036 -0.16563432 -0.18639891 0.04916745 -0.09561846
perhaps 0.15144973 0.06325886 0.03365183 -0.007631594 0.0380978 0.060391817 0.007387845 0.014656685 0.03681538 0.06295284 0.025237544 0.047076806 -0.046917945 0.0320138 0.070372686 -0.05269822
sex 0.09292076 0.072008446 -0.09861954 -0.024291173 0.018002266 0.05519211 0.034737896 0.013390696 -0.07838405 0.07331408 -0.0972122 0.03518107 0.0366064 0.052144766 0.11436873 -0.041202463
mean 0.02422312 -0.113125496 0.13705683 0.1400826 -0.05540413 -0.11036576 -0.09969933 0.09380954 0.0826042 -0.024965763 0.13039276 -0.058954597 -0.14682364 -0.16112518 -0.013421491 0.06533004
came 0.10322784 -0.018425627 0.04592603 0.032912225 0.005961606 3.255847e-05 -0.025462063 0.029000923 -0.001438459 -0.0083017545 -0.015443625 -0.040800888 -0.15155157 -0.00424285 0.05409499 -0.054922972
recommend 0.23194961 0.107380815 0.029837001 -0.005782008 -0.017026367 0.058665644 0.08089382 -0.045423556 0.06501553 0.13106641 0.017700065 0.014527518 -0.092798695 -0.0037050925 0.06962877 -0.10085703
let 0.14021242 -0.041096296 0.057043947 0.050304085 -0.1129656 -0.07029406 -0.02121755 -0.0047049136 0.022759825 -0.025514146 0.029070105 0.03226007 0.025963258 0.01791697 0.19423774 -0.07555046
moments 0.18360133 0.061756674 0.07607619 -0.009264773 -0.09835331 0.035151616 0.024027376 0.05886041 -0.009579352 0.050035622 -0.0075915717 -0.016922574 -0.100865886 -0.07298678 0.16433387 -0.058630034
wonderful 0.12052535 0.09504763 -0.117568366 -0.13897987 0.06528558 0.120255195 0.14913031 -0.1458316 -0.0671126 0.1752689 -0.17458256 0.090319954 0.069770895 0.09661123 0.10124863 -0.11696619
episode 0.10858551 0.0009600121 0.078198135 0.0902404 -0.06642942 -0.0075832354 -0.08768199 0.020400535 0.06365937 -0.06389147 0.09776149 -0.046411067 -0.08527964 -0.059185505 -0.00035806373 -0.013216856
understand 0.17890716 -0.021438157 0.055154182 0.011608915 0.03325861 0.031097842 0.0010540738 0.014473081 -0.018727632 0.0070839887 0.029172314 0.047697287 -0.112935714 -0.05196544 0.1342764 -0.05158823
small 0.013274693 -0.08815894 0.060290687 0.07570477 -0.06831252 -0.033888098 -0.050907776 0.06544856 0.09415677 -0.08991671 0.058292452 -0.065979354 0.003688805 -0.10012121 0.020504884 0.008344827
face 0.09161476 0.03584569 -0.051526707 -0.016930265 -0.034014024 0.025019206 0.04610875 -0.08121737 0.023275547 -0.011367171 -0.002109157 0.029464057 0.042438544 0.03377193 0.1050026 -0.06437721
terrible 0.12155238 -0.0661206 0.15448762 0.09997508 -0.057769876 -0.1233382 -0.090491384 0.116911344 0.19505936 -0.04643354 0.07272289 -0.09885274 -0.1335658 -0.1519562 -0.02392321 -0.029672066
playing 0.10102392 0.09749658 -0.07674569 -0.1327581 0.08165823 0.07158149 0.13608566 -0.051790766 -0.103713274 0.06880798 -0.12129225 0.07033755 -0.018625658 0.058780015 0.0056869634 -0.008690499
school 0.016459098 -0.07168951 0.13231789 0.09721748 -0.06650192 -0.072082795 -0.08411016 0.10915437 0.06677124 -0.001740389 0.11878714 -0.11049777 -0.099632606 -0.06663808 -0.09801403 -0.0065739257
getting 0.16030802 0.020493452 -0.026301458 -0.013832099 -0.0013276013 0.04475995 0.01086833 -0.023144446 0.020025449 0.056451637 -0.01924782 0.04562234 0.066228546 0.044180032 0.062545955 -0.033225603
written 0.13607113 -0.031156765 0.081022926 0.08402837 -0.0657076 -0.09569869 -0.04623839 0.101481885 0.1392705 -0.018521799 0.04624705 -0.0994469 -0.10156112 -0.070557415 0.15216924 0.04727128
doing 0.12787162 -0.05512318 0.027512124 0.001046586 -0.009169987 0.009845841 -0.04658726 -0.027600685 0.041247785 -0.00031722378 0.054644912 -0.0010433992 -0.010423143 -0.059615392 -0.012024617 -0.007042006
often 0.08267605 0.05860866 -0.13252722 -0.12640817 0.10466785 0.13231339 0.15532829 -0.14997895 -0.05161444 0.08748895 -0.1426242 0.12826458 0.035935078 0.12775539 0.040032472 -0.0687094
keep 0.10538747 -0.045605414 0.060728032 0.050475035 0.018939136 -0.06873487 -0.039788317 0.030120345 0.011212162 -0.046158243 0.056296118 0.011060686 -0.050088946 -0.04751464 -0.02201075 -0.0016347638
early 0.0033737493 0.07951153 -0.06514619 -0.0009960837 0.029338095 0.068133995 0.03717702 -0.055608224 -0.050789222 0.0405215 -0.07284326 0.016291082 -0.08311721 0.02568795 -0.002390898 -0.06095914
name 0.11315626 -0.04585378 0.09713637 0.14344503 -0.0919433 -0.0897583 -0.111088954 0.10018575 0.098267674 -0.027253745 0.14618854 -0.08629476 -0.0357611 -0.12649664 0.07548128 0.016579118
perfect 0.06442871 0.05887193 0.006634555 -0.023668747 0.0021348416 0.043618124 0.084702775 0.004811894 -0.08136652 0.058556575 -0.066472694 0.08123039 -0.022741117 0.036522362 -0.0038666367 -0.03284028
style 0.15817365 0.13043138 -0.11973114 -0.04797228 0.03352656 0.121003546 0.10575797 -0.09296523 -0.04762369 0.1356962 -0.14342816 0.16825734 0.040076774 0.070414044 0.14044727 -0.10494522
human 0.17262076 0.019191606 0.02293415 -0.021469114 0.013705891 0.11078327 0.06987053 -0.05030655 -0.028533092 0.0707902 -0.012991676 0.097993 0.041090555 0.012761227 0.09916918 -0.14767289
definitely 0.22906937 0.104796536 -0.03525966 0.002291036 0.02318195 0.12005444 0.07021391 -0.051429696 -0.08502599 0.12111413 -0.042922404 0.023242725 -0.12325447 0.026813969 0.13280065 -0.06558441
gives 0.12604411 0.079594105 -0.05073485 -0.054526772 0.021661209 0.06379898 0.10633271 -0.08633763 -0.07933253 0.1428962 -0.10204807 0.076015934 -0.019425895 0.07896718 -0.039373107 -0.026423816
others 0.0067264447 -0.036061227 0.057692233 0.008778276 -0.0069259265 -0.009567513 0.0068684304 -0.03404111 0.061779257 0.0214773 0.012574327 -0.055051047 -0.11789079 -0.041439373 -0.101114124 0.016940372
itself 0.10413196 -0.14932555 0.20442125 0.15642314 0.002148044 -0.12980942 -0.14635164 0.12409587 0.14957522 -0.08137304 0.15331265 -0.117452756 -0.18474905 -0.23629165 -0.1293833 0.05594929
lines 0.085094035 -0.001002997 0.1010231 0.05685145 0.0026627164 -0.059381377 -0.013623582 -0.017577978 0.14087291 0.017273244 0.05846734 -0.07786983 -0.09120995 -0.12682875 -0.049510468 0.0073440378
live 0.11709096 0.001953428 0.04259479 -0.027950818 0.0045630448 0.06665957 0.07250271 -0.027089339 -0.01323285 0.08224691 -0.05817202 0.083279796 -0.0053534745 -0.0052494314 0.08467759 -0.108041056
become 0.00845073 -0.010791185 -0.055153046 0.012364797 -0.04620996 -0.01899816 0.05181775 -0.02904927 -0.017177375 -0.037590105 -0.015902912 0.019509573 0.04504055 0.021186385 -0.049079187 0.062186137
dialogue 0.062641315 -0.05491727 0.032647386 0.04975141 -0.02338351 -0.036161285 -0.044921737 -0.025634613 0.01825677 -0.06466628 0.080523945 0.018534165 0.07666645 -0.05947626 0.052322615 0.012365531
person 0.049552646 0.06110799 -0.010687411 -0.005341708 0.031395372 0.067464635 0.0041363505 -0.0663168 0.007950447 0.08658279 -0.010633476 0.03150239 -0.09799844 -0.041990764 0.054757632 -0.016948218
lost 0.038500268 -0.04244142 0.06063599 -0.0045139017 -0.06845894 0.0016033895 -0.03834421 0.05852375 -0.017025216 0.023769954 -0.039169785 0.010572398 0.027985886 -0.028525455 0.08768836 0.009999589
finally 0.10950277 -0.017593093 -0.034419037 -0.041330773 -0.05789475 -0.027650984 0.046276677 0.042569634 -0.002919367 0.028959611 -0.023246985 0.010803298 -0.016306965 0.044241402 0.15099119 -0.023087054
piece 0.18611602 -0.16109528 0.2856021 0.21936595 -0.062906995 -0.13414086 -0.10733715 0.14046402 0.22375512 -0.02116664 0.18990155 -0.09311016 -0.23737675 -0.23056632 0.09613703 -0.053167846
head 0.21568403 -0.10340177 0.19749945 0.16472036 -0.17051898 -0.17800425 -0.1403818 0.10216727 0.19970228 -0.014911395 0.16115248 -0.10656963 -0.2290728 -0.1713107 0.14882626 -0.09416309
case 0.061921205 -0.057486653 0.14606683 0.13639778 0.05214805 -0.12150167 -0.09255408 0.06473496 0.07294789 -0.024461733 0.058516376 -0.042686254 -0.10135709 -0.1311657 -0.026605377 0.016147815
felt 0.08127198 0.0296548 -0.047149528 -0.035205215 -0.01167232 0.019364439 0.004682108 0.01624643 -0.03737294 0.040129986 -0.065256454 -0.018584855 -0.030765418 0.062299337 0.057804365 0.00036293553
yes 0.10496633 0.053118225 -0.09155347 -0.04592518 0.101005584 0.13211845 0.13589314 -0.10612501 -0.050345454 0.07241621 -0.08927684 0.15163936 -0.056444228 0.02133042 0.042390473 -0.05193336
liked 0.10576942 0.15136334 -0.12319403 -0.17863122 0.16675226 0.22719266 0.20058596 -0.16333923 -0.16270868 0.20561731 -0.15840378 0.17364925 -0.09365425 0.19755186 -0.02507666 -0.12331645
supposed 0.16354142 -0.12942731 0.18911825 0.11221222 -0.11063952 -0.081887364 -0.1603297 0.099233456 0.08627399 -0.050296616 0.10020297 -0.13910568 -0.0989626 -0.085333854 0.17631736 0.07986796
title 0.06220539 -0.01285284 -0.0057058176 0.022694912 -0.09484134 -0.015154853 0.0080940435 0.063646555 0.04947938 0.018891836 -0.0044168686 0.047586106 -0.048883356 -0.027923761 0.018104827 0.0047873682
couldn't 0.070901796 -0.013317254 0.060552336 0.11773168 -0.028922234 -0.03368603 -0.08517163 0.08875537 0.055936903 -0.028902782 0.09516945 -0.06692193 -0.12673329 -0.026223656 0.031190652 0.032269485
absolutely 0.11569187 -0.042808346 0.094110526 0.009624031 -0.07017541 -0.054644197 -0.05310367 0.059918497 0.073210105 0.05067304 0.033660702 -0.04829569 -0.021155413 -0.03915956 0.043089945 -0.032155544
white 0.04397269 -0.025299074 0.023897838 0.024132878 0.014448975 0.036546696 -0.0194747 0.01076885 0.03755256 -0.015110238 0.022602296 -0.018855814 0.06600843 -0.041682526 0.0011839138 -0.0076449923
against -0.0054060156 0.041410875 -0.033486802 -0.057098288 -0.0065986603 0.040366016 0.027263487 0.010377979 -0.029767402 0.002454011 0.00103255 -0.026794592 -0.025651334 0.023464898 0.017059872 -0.031835686
boy -0.0004855361 -0.0097309 -0.057172284 0.019618638 0.017166944 0.01946896 0.029939283 0.008889807 -0.017617684 0.053869467 -0.019016873 0.04735108 -0.0046272962 -0.019122139 0.012616935 0.013264649
picture 0.14012246 0.066520795 -0.019804295 -0.0139442 0.092492975 0.0049234303 0.03225987 -0.061865706 -0.049315352 0.060771093 -0.017675366 0.02531552 1.6459206e-05 0.023570387 -0.022076199 -0.029346034
sort 0.045483842 0.05649089 -0.05649174 -0.002598583 0.08267906 0.02453284 0.023489883 -0.068052076 -0.05165374 0.0036034775 0.010555277 0.04515123 0.031981666 0.05360456 -0.008712221 -0.018783297
worse 0.16095266 -0.015024532 0.050451335 0.0057249563 -0.044508163 -0.064669706 -0.02532267 0.07785915 0.04952905 -0.039441947 -0.0150853945 -0.04117186 0.024607874 -0.006454214 0.10103546 -0.019721612
certainly 0.1642726 0.06975274 -0.077500135 -0.072999276 0.0069082812 0.02006735 0.005884375 -0.030828575 -0.09514457 0.018497415 -0.01391505 0.030989774 0.029691573 0.0012805763 0.035574753 0.0011758282
went 0.0927157 -0.096935086 0.050702225 0.034264456 -0.02160701 -0.11705494 -0.02140766 0.050572872 0.106896475 -0.0012100732 0.05583767 -0.105109096 -0.08229131 -0.09221779 -0.033249117 0.08441239
entire 0.17912203 -0.0273173 0.11492691 0.14297883 -0.12693109 -0.12078265 -0.07006637 0.13352543 0.12225936 -0.021874432 0.047680758 -0.010479293 0.023175921 -0.015748736 0.15516792 -0.10785138
waste 0.23205079 -0.06704901 0.21476837 0.24143249 -0.11849186 -0.12717213 -0.1637042 0.16616037 0.16469923 -0.111233324 0.11113801 -0.09872228 -0.17116684 -0.16061532 0.10079558 0.007583061
cinema 0.11409676 -0.03647408 0.10628875 0.0716564 0.04044701 -0.028509805 0.028738836 -0.07552859 0.14150055 0.016948933 -0.0021819968 0.002193338 -0.068442695 -0.09174961 -0.059810884 -0.03677496
problem 0.036175832 0.064298734 -0.031216657 -0.0359788 -0.0025672924 0.08264966 0.048696663 -0.0381218 -0.035481114 0.04762586 -0.021940004 0.06397963 0.02773001 -0.014178792 0.023274807 -0.068229444
hope 0.15411222 0.015725419 -0.012514209 0.0007114527 0.08278549 0.08016284 0.04056265 -0.06041405 -0.04868682 0.02515955 -0.004590215 0.054062836 -0.037755333 -0.0011167293 0.03295327 -0.072805464
entertaining 0.06711649 0.004097626 0.025790274 0.029059812 0.03376089 0.0002402376 0.00055367267 0.020832244 0.031007068 0.04909333 -0.007236526 -0.01239054 -0.045224525 0.012520998 0.116209224 -0.03197876
she's 0.09566442 -0.06330349 0.06821341 0.051282894 -0.06106627 -0.06446671 0.0005778774 0.020697506 0.045903254 -0.028223727 0.04672562 -0.05968247 0.0032585668 0.004042526 0.11722899 -0.009957437
mr -0.005595159 0.010686322 0.0031341212 -0.059354194 0.0478204 0.03164758 0.019795064 -0.053329073 0.014335487 -0.034096763 -0.01941407 0.06806125 -0.015020157 -0.0038546545 -0.047482792 -0.05502782
overall 0.18699208 -0.011991161 0.01346609 -0.0014210073 0.022615314 -0.03182466 -0.007192299 -0.052176237 0.003143752 0.015799884 -0.034697555 0.01458522 -0.17700095 -0.06713455 0.13582274 -0.090956494
evil 0.06388453 0.026988246 0.0035106102 -0.010960279 -0.012306942 0.029560931 0.001992853 0.051439516 0.037393574 0.029005261 -0.015396898 -0.0343129 -0.04375854 -0.06802468 0.0077022025 0.05621344
called 0.09220976 -0.026582612 0.11345049 0.11246339 -0.0686654 -0.122240536 -0.059018683 0.027724722 0.06704581 -0.0366163 0.06888326 -0.1027408 -0.1353525 -0.07511197 0.074662454 0.00744706
loved 0.09919883 -0.06693548 0.07802429 0.070974596 -0.07955963 -0.008568464 -0.07733396 0.039034456 0.05196505 -0.046463452 0.08416608 -0.0679012 -0.048922114 -0.01647234 0.04494795 0.05589768
based 0.040902495 -0.038246248 0.008567047 0.01722648 0.035952993 -0.0059764283 0.0121811675 0.029989425 -0.006134283 -0.040267657 -0.013665723 -0.03713025 -0.08875861 -0.034216803 0.013841128 0.028051173
oh 0.07031909 -0.0026015667 0.070659585 0.028871624 -0.05197294 -0.030757446 -0.05740207 0.08319611 0.048551112 -0.04208985 0.08176526 -0.10088399 0.016704015 -0.00093543483 0.08259059 0.0189939
several 0.20824203 -0.014886934 0.08003339 0.06690958 -0.006016436 -0.028885981 -0.040524036 0.07081052 -0.0057643745 -0.027753582 -0.023264734 0.0008722063 0.012846394 -0.003159063 0.014926012 0.014975596
fans 0.0711914 -0.059699636 0.08437344 0.082346365 0.0130923 0.01402383 -0.024858272 -0.0635236 0.048592348 -0.00013816005 0.016618794 -0.08213003 -0.1468344 -0.095332 -0.14345357 0.020976119
mother 0.06619517 -0.00037191194 -0.042404488 -0.027891736 -0.02809306 -0.009206939 -0.012789539 -0.0040317513 0.018336063 0.04157864 -0.06195432 0.019109331 0.008824558 0.057164997 0.05147251 0.002239021
drama 0.038152467 0.022767056 0.000428223 0.032151677 0.048050787 0.009156542 0.0026400292 0.019132352 -0.015117649 -0.0006272055 -0.021345899 -0.0529396 -0.030675452 -0.054520134 -0.026001295 0.027054947
beginning 0.13236196 0.047518432 -0.07047168 -0.117484555 0.1139238 0.12428198 0.12216637 -0.11421398 -0.01327496 0.07184473 -0.08989837 0.09963291 -0.03944324 0.04619809 0.039086625 -0.0015616608
killer -0.0069688773 -0.024545249 0.086306 0.0892014 -0.0052587544 -0.016586993 -0.035460506 0.017194485 0.08589167 0.0023482577 0.0712565 -0.043505102 0.04662445 -0.019327473 0.036035247 0.04509255
lives 0.12362373 0.0050557586 0.13921592 0.09313304 -0.07028361 -0.034565475 -0.0046170685 0.047291365 0.098737545 -0.053099766 0.032493144 -0.044170976 -0.18483897 -0.050266266 0.06948497 -0.045868296
5 0.15368429 0.036633685 0.088145554 -0.007965537 -0.0032859312 0.09339643 0.04434685 -0.07064393 0.04354966 0.13035746 0.01607216 0.07065924 -0.04847585 -0.031371348 0.054650795 -0.12696765
direction -0.061747123 -0.027544634 0.059316892 0.089991756 0.015125816 -0.11557568 -0.035428133 -0.00875179 0.08294979 -0.067356564 0.13041273 -0.049822755 -0.17499575 -0.066229016 -0.07047032 0.046024177
care 0.14937428 0.00076892937 0.034730367 0.02541613 -0.069209635 -0.09573572 -0.015451708 -0.00063251326 0.0634658 -0.008930425 0.07797933 -0.009369177 -0.022459256 -0.06367936 0.03677091 0.018954357
already 0.13092999 -0.026108198 0.060947794 0.088740624 -0.05392406 0.032821253 0.016028464 0.020164816 0.073225774 0.046478342 0.043797035 0.045632657 -0.115519375 -0.0047378866 0.12712945 -0.054546814
becomes 0.16147898 0.16347769 -0.07078492 -0.14597334 0.09854331 0.15571484 0.10069966 -0.10307141 -0.1351646 0.11612296 -0.14995143 0.11012112 -0.066684715 0.11207196 0.08373214 -0.088972226
laugh -0.008911776 -0.028893808 0.02480247 0.07307287 -0.047765814 -0.05690889 -0.07399699 0.05599268 -0.016993884 0.012969062 0.030039817 -0.07112927 -0.051623676 -0.025738165 0.06723754 0.06359521
example 0.043140586 0.02003662 -0.0212594 -0.030612309 -0.003194346 0.013505178 0.091363624 -0.0396428 -0.08530907 0.046306178 -0.061120477 0.041902117 0.041444205 0.01899805 0.06261629 -0.03440549
friend 0.10759003 0.14230107 -0.15394674 -0.11339199 0.091788426 0.15169327 0.11971169 -0.1518835 -0.111457296 0.0594993 -0.07119218 0.118461564 0.10425946 0.10658881 0.08252602 -0.12395457
dark 0.13833995 -0.048226304 0.015088986 0.0064114816 0.0381424 0.03785831 0.027011074 -0.014157044 0.05292654 0.038951814 0.03340194 -0.011581216 -0.16910118 -0.0804905 0.17175013 -0.12601635
despite 0.12710518 -0.03341958 0.06274732 0.010897767 -0.052501816 -0.06759724 -0.08434056 0.010242204 0.09843414 -0.069681235 0.023324894 -0.07080137 -0.043554567 -0.049325373 0.0595271 -0.010128722
under 0.15901688 0.102726184 -0.10472676 -0.11045302 0.043146815 0.066448 0.10484179 -0.11164575 -0.075974435 0.15126587 -0.109970234 0.14597113 0.077992834 0.09905267 0.11022876 -0.11096811
seemed 0.10825421 0.05017456 -0.09498136 -0.028445985 0.008833448 0.035608914 0.11167411 -0.10463677 -0.061219156 0.052814644 -0.04971575 0.017884897 -0.059351068 0.016503904 -0.00064877904 -0.020583484
throughout 0.045811836 -0.0498658 0.016017037 -0.011085617 -0.038025636 -0.058549874 5.483521e-05 -0.008924275 0.026660534 0.028683137 0.039210442 -0.02169695 0.022474548 -0.032877054 0.05318647 -0.011083018
4 0.08974359 -0.19570448 0.22950983 0.21552494 0.05140093 -0.1807393 -0.13132861 0.13047348 0.30038685 -0.0030214058 0.12575488 -0.17552973 -0.2277708 -0.24265796 0.0450356 -0.10015355
turn -0.042948596 0.025577733 0.06131134 -0.0071398485 0.012398761 -0.06759742 -0.04456507 0.06502436 0.040747385 -0.0116916485 0.04371933 -0.03475851 0.015580392 -0.01766655 0.027163882 0.04697109
unfortunately 0.121069245 -0.020575935 0.030940484 0.034219723 -0.01763239 0.034175675 -0.014523998 -0.015231431 -0.022285098 0.036816157 0.0017597561 0.015097358 0.025532242 0.013277415 0.0069318986 -0.060247075
wanted 0.16083628 -0.045481447 0.13760613 0.04037354 -0.02898708 -0.074120924 -0.056570284 0.057980563 0.08234565 0.038548958 0.021716105 -0.045674775 -0.10546725 -0.053186618 0.041531157 -0.047663473
i'd 0.007042653 0.052651167 -0.096388 -0.04313957 0.067206025 0.066551805 0.02064058 -0.051280513 -0.07818416 0.05963935 0.0068348376 0.07420231 -0.046442494 0.08060996 -0.07305057 -0.023761421
 0.0651575 0.069344446 0.023932556 -0.057294764 0.007554822 -0.0051006693 0.014989755 -0.029899282 -0.0040779756 0.0011399605 -0.0045717373 -0.026960582 0.02021232 -0.017927714 0.10048692 -0.010046062
children 0.07091686 0.061269645 -0.012997436 -0.08752291 -0.015657568 0.07715893 0.10284428 -0.060397428 -0.029840685 0.04277439 -0.095488995 0.0841246 0.06168327 0.07515702 0.085845865 -0.1133013
final 0.18866026 0.0871444 -0.03168551 -0.056046437 0.08861113 0.07211254 0.06525828 -0.06495213 -0.03664508 0.11389256 -0.003228872 0.033158157 -0.15498082 0.038487226 0.030208047 -0.08799123
fine 0.14765774 0.07023203 -0.03214013 -0.060101293 0.055818666 0.10999912 0.08312863 -0.06283736 -0.090664245 0.04896237 -0.05076172 0.042103257 0.08184858 0.04887383 0.046608046 -0.0061412305
history 0.10792031 -0.015560136 0.073611535 0.058467966 -0.009660111 -0.06678119 -0.0017291553 0.053804655 0.098148026 0.056235608 0.012989671 -0.018400237 -0.031953372 -0.021651017 0.019910658 -0.07709868
amazing 0.16450499 0.14832331 -0.12849554 -0.174998 0.11760968 0.20169473 0.19504432 -0.11986663 -0.14482751 0.19643255 -0.124102406 0.12713073 0.02137777 0.11414257 0.10304855 -0.11940136
sound 0.11050139 -0.01397954 -0.07933086 0.029091503 -0.03421235 0.064504206 0.07005041 0.024008742 -0.029637875 0.057918705 -0.024170833 0.031347264 0.008583496 0.011828562 0.04304679 -0.05887232
guess 0.010836567 -0.06640965 0.1795546 0.17868118 -0.0017068484 -0.11765269 -0.1035354 0.11225882 0.12208881 -0.05509928 0.10255169 -0.14908732 -0.108808964 -0.15435107 -0.089672275 0.06552284
heart 0.10904571 0.13891841 -0.09959472 -0.070804164 0.03380179 0.18809555 0.18807909 -0.14422512 -0.106607415 0.1369372 -0.08391006 0.11437968 0.03229489 0.1189115 0.07258268 -0.103085026
totally 0.10038475 -0.06361759 0.015110358 -0.014446008 -0.07606869 0.020668028 0.0017136991 -0.011204177 0.06691505 -0.032077648 0.04617133 0.011248118 0.00053740497 -0.068205155 0.1131063 0.036045417
lead 0.053485427 0.066341 -0.04606839 -0.04945567 0.104973726 0.08226012 0.073690616 -0.0802336 -0.055583447 0.09211639 -0.048513148 0.077051595 0.0048536514 0.055508442 0.03380931 -0.029593093
humor 0.09435142 0.033192627 -0.035268333 -0.07516437 0.0017257275 0.05194269 0.12941337 -0.062042452 -0.038031787 0.12848109 -0.09970993 0.03368636 0.054865476 0.06610428 0.050370652 -0.03780356
writing 0.010768861 -0.07714487 0.03531545 0.0039758445 -0.08775253 -0.062764116 -0.016353222 0.07757825 0.0837742 -0.07149859 0.09040742 -0.0019674746 0.060400188 -0.003183512 -0.01089268 0.014962942
michael 0.08313052 0.120766744 -0.10954242 -0.10036248 0.07001324 0.11134429 0.13660555 -0.09156936 -0.12525469 0.061054856 -0.050596792 0.06631186 -0.043979708 0.12763494 -0.013698324 -0.10657893
quality 0.095849454 0.046789166 -0.051987875 0.04181262 -0.06493626 0.042831913 0.016993852 0.00025775202 -0.042531084 0.03423284 -0.018320212 0.01884046 0.0539108 0.014570473 0.13994406 -0.08590537
you'll 0.081501074 0.026749333 0.04193784 0.053369492 0.009439346 -0.036392227 0.04195541 0.00229477 -0.015525119 -0.00074411684 0.023125403 -0.034974977 -0.08535782 0.017244304 -0.012276944 -0.051965397
close 0.15388136 0.14730805 -0.1556073 -0.1485755 0.14168611 0.12981516 0.22056867 -0.14469223 -0.12479062 0.12299057 -0.15875 0.20031795 0.13803972 0.18204969 0.05527715 -0.10171821
son 0.028937215 -0.011315669 -0.010237238 -0.06554473 0.03871178 0.03730216 0.07667608 0.007399583 -0.06516357 0.043076564 -0.058784533 0.01906577 -0.03661292 0.052700672 0.041519254 -0.043504357
guys 0.07321888 0.024787895 -0.08886589 -0.015390029 0.0742334 0.036382318 0.050746642 -0.0190854 -0.10063374 0.013420536 -0.094509676 0.102049015 0.0034587348 0.038161393 -0.035985984 0.022772461
wants 0.08207959 0.042091228 -0.0945519 -0.09538273 -0.0003070555 0.1123461 0.05104835 -0.033641636 -0.0722127 0.020289497 -0.056334887 0.05804099 -0.03904603 0.04926106 -0.06572411 0.0100289965
works 0.09952803 0.123029605 -0.15131702 -0.1529455 0.08031052 0.22955927 0.19121678 -0.20845237 -0.13102917 0.18393873 -0.18708725 0.15423094 0.1249079 0.091158144 0.08782098 -0.16103718
behind 0.15078819 -0.0118093975 0.10300604 0.05097907 0.015758498 -0.04477793 -0.04050624 0.039853383 0.1330251 0.049762484 0.06254562 -0.048475474 -0.12807803 -0.072826065 0.059097074 -0.121639684
tries 0.1298106 0.011766786 -0.0029126173 0.065705955 -0.03843567 -0.0298803 -0.04176124 0.08845421 -0.00301629 -0.004662763 0.044797827 0.008855678 -0.036046773 -0.018492436 0.036757115 -0.029488971
art 0.058776774 -0.05255571 0.09461881 0.061557755 0.03706306 -0.114979684 -0.07948111 0.011320763 0.098269716 -0.0933686 0.06506271 -0.028675253 -0.057814505 -0.10386456 -0.013333058 0.028895132
side 0.032850552 0.0074679446 -0.060757026 -0.04611038 0.04140984 -0.01739805 0.05930787 0.0075022704 -0.037026733 0.007645761 -0.028311186 -0.020671044 -0.028255748 0.05191784 0.032203496 0.010022837
game 0.06888482 0.03462456 -0.0030092741 -0.0051555857 0.029279234 -0.027708832 -0.00071933365 0.018237064 0.028925974 0.023934139 0.04472063 0.057726156 -0.077586465 0.004173137 0.032603763 -0.048858013
past 0.13475361 -0.08280405 0.045306027 0.07504359 -0.00057515193 -0.08930249 -0.049782168 0.04628596 0.008084549 -0.049192585 -0.0060118777 0.0025740005 -0.015100903 0.0009807219 0.053754177 -0.041719504
able 0.12977518 0.08851603 -0.11154737 -0.06824616 0.0971865 0.117687315 0.06498249 -0.10557775 -0.057077028 0.0945341 -0.052635737 0.037506476 -0.018894741 0.07642162 -0.042010084 -0.016390918
b 0.15655589 0.10311408 -0.1031789 -0.08978392 0.061724138 0.09094697 0.17811768 -0.093049355 -0.15987916 0.08632982 -0.09644416 0.096651696 0.009825374 0.0763254 0.07025876 -0.04678619
days 0.18928061 -0.0005630136 0.031280085 0.024374006 0.04589194 -0.0052536675 -0.008921807 0.047740046 0.060658094 0.02821697 -0.034685332 -0.013670832 -0.15462749 -0.04806241 0.12904523 -0.022842836
turns -0.070443 -0.048264585 -0.003675621 0.047708213 -0.013697686 0.019257443 0.028035687 -0.02893834 -0.029751077 -0.05632888 0.0594242 0.009502641 -0.0026621495 0.02547319 -0.028081551 -0.012028703
child -0.03196798 0.0047378615 0.044060543 0.061652187 0.0014589016 -0.058181293 -0.02854306 0.027574992 0.041374218 0.00016754321 0.059663042 -0.09864662 -0.10420225 -0.08442252 -0.05067447 0.03008089
they're 0.1157661 -0.052861772 0.12385646 0.06161011 -0.0833451 -0.07361779 -0.102369316 0.051106445 0.057786636 -0.036909144 0.11292976 -0.07688615 -0.105935104 -0.14116457 -0.007626483 0.064635456
